{
  "body.0.weight": [
    [
      0.06323447823524475,
      -0.047791700810194016,
      0.01862344890832901,
      0.017364008352160454,
      -0.7843356728553772,
      0.1466868817806244,
      -0.06505605578422546,
      0.16087894141674042,
      0.04396102949976921,
      -0.03872023895382881
    ],
    [
      0.08716723322868347,
      -0.016726108267903328,
      0.12291555851697922,
      -0.6362564563751221,
      -0.4200601577758789,
      -0.536309540271759,
      0.04583530128002167,
      -0.0012632737634703517,
      0.2764357924461365,
      0.09840695559978485
    ],
    [
      -0.44276612997055054,
      -0.657951831817627,
      -0.1471339464187622,
      -0.005642479285597801,
      0.02630656585097313,
      0.12919190526008606,
      0.1885121464729309,
      0.17188137769699097,
      -0.3091287314891815,
      0.19603607058525085
    ],
    [
      0.036982905119657516,
      0.2597689926624298,
      0.21438424289226532,
      -0.6075170040130615,
      -0.592689037322998,
      -0.3763517737388611,
      0.2776833176612854,
      -0.052673742175102234,
      0.13533265888690948,
      -0.14695465564727783
    ],
    [
      0.31803545355796814,
      -0.33678221702575684,
      0.1712871491909027,
      0.05384056270122528,
      -0.08839026093482971,
      0.18109442293643951,
      -0.16786006093025208,
      0.09300407022237778,
      -0.09131304174661636,
      -0.03466944023966789
    ],
    [
      -0.2684166133403778,
      -0.13336215913295746,
      0.16087305545806885,
      -0.06822817027568817,
      0.2288205921649933,
      0.3685060739517212,
      -0.014806929044425488,
      -0.21107669174671173,
      0.1925707459449768,
      0.09814353287220001
    ],
    [
      -0.08470721542835236,
      0.2984022796154022,
      0.14191879332065582,
      0.2707120180130005,
      -0.06748645752668381,
      0.03701445087790489,
      -0.006125922314822674,
      0.04618743062019348,
      -0.23999103903770447,
      -0.2244022935628891
    ],
    [
      0.1564071923494339,
      -0.1137625128030777,
      0.09885041415691376,
      -0.01136674266308546,
      0.09075615555047989,
      0.12956976890563965,
      0.11498022824525833,
      0.15675748884677887,
      -0.2928623557090759,
      0.15917369723320007
    ],
    [
      -0.3114872872829437,
      -0.5566176772117615,
      -0.019219832494854927,
      0.022875968366861343,
      0.12208200246095657,
      -0.0055215321481227875,
      -0.28112077713012695,
      0.23014070093631744,
      -0.046890825033187866,
      0.17786458134651184
    ],
    [
      0.11708103120326996,
      -0.31349557638168335,
      0.05396464094519615,
      0.08433275669813156,
      -0.4563009738922119,
      -0.4197363555431366,
      0.10782596468925476,
      0.0566435307264328,
      -0.13451462984085083,
      -0.09572716802358627
    ],
    [
      0.17179225385189056,
      -0.16853868961334229,
      0.10403396189212799,
      0.07259457558393478,
      -0.471670925617218,
      -0.8675788640975952,
      0.30354344844818115,
      0.016512392088770866,
      0.21676087379455566,
      0.06553232669830322
    ],
    [
      -0.0880262702703476,
      0.11194658279418945,
      0.05184679105877876,
      -0.44640299677848816,
      0.02136423997581005,
      0.14269748330116272,
      0.2290864884853363,
      0.19645285606384277,
      -0.228860005736351,
      -0.22771695256233215
    ],
    [
      -0.27365365624427795,
      -0.05557463318109512,
      0.19668710231781006,
      -0.28458845615386963,
      0.17159730195999146,
      -0.1363593339920044,
      -0.2973223030567169,
      -0.06721094250679016,
      0.18220123648643494,
      0.2935779094696045
    ],
    [
      -0.23468470573425293,
      -0.07218028604984283,
      0.16221275925636292,
      0.09326127171516418,
      0.08424457162618637,
      0.13339440524578094,
      0.2000192403793335,
      0.08168048411607742,
      -0.21624290943145752,
      -0.2655549645423889
    ],
    [
      -0.48123109340667725,
      -0.2836838364601135,
      -0.6696668863296509,
      0.040817078202962875,
      0.1476401388645172,
      0.0006749258609488606,
      0.12153922021389008,
      0.102199986577034,
      0.19306936860084534,
      0.2129615843296051
    ],
    [
      -0.13002681732177734,
      0.3596564531326294,
      -0.04868404567241669,
      0.04155188053846359,
      -0.16756217181682587,
      -0.15447306632995605,
      -0.18474136292934418,
      -0.13525786995887756,
      0.2248283177614212,
      -0.10333723574876785
    ],
    [
      -0.39680224657058716,
      0.06438854336738586,
      0.04952802136540413,
      0.16816292703151703,
      -0.16952252388000488,
      0.0376102551817894,
      -0.11512291431427002,
      -0.07104837894439697,
      -0.25200772285461426,
      -0.14412426948547363
    ],
    [
      -0.11544738709926605,
      0.07315413653850555,
      -0.01255805790424347,
      -0.08039829134941101,
      0.21951131522655487,
      0.19698309898376465,
      0.2156822383403778,
      0.010069812647998333,
      -0.21876364946365356,
      0.24713504314422607
    ],
    [
      -0.22420349717140198,
      -0.08466018736362457,
      -0.3477989733219147,
      -0.12172958999872208,
      -0.22006918489933014,
      0.23363009095191956,
      -0.27338555455207825,
      -0.2464940845966339,
      -0.010737921111285686,
      -0.1709892451763153
    ],
    [
      0.015687620267271996,
      -0.19111475348472595,
      -0.04146652668714523,
      -0.023288337513804436,
      0.12116996198892593,
      -0.338321328163147,
      0.14850254356861115,
      0.20315779745578766,
      0.30933311581611633,
      -0.22133758664131165
    ],
    [
      0.018335334956645966,
      -0.3473605811595917,
      0.1617235392332077,
      -0.2786649167537689,
      0.18631304800510406,
      0.051905352622270584,
      -0.02462865598499775,
      -0.010090131312608719,
      0.053756970912218094,
      0.14906853437423706
    ],
    [
      -0.0037086536176502705,
      -0.12346319854259491,
      -0.9519115090370178,
      0.05980700999498367,
      0.1930875927209854,
      0.208775594830513,
      0.233762726187706,
      -0.22819988429546356,
      -0.11722563207149506,
      0.2788260281085968
    ],
    [
      -0.38730597496032715,
      0.20620611310005188,
      -0.24148736894130707,
      -0.42752110958099365,
      0.058338988572359085,
      -0.15293562412261963,
      -0.0724480003118515,
      0.2300531268119812,
      0.2504805028438568,
      0.2990742027759552
    ],
    [
      -0.17017902433872223,
      -0.450586199760437,
      0.26578274369239807,
      0.05234769731760025,
      -0.08418727666139603,
      0.07445794343948364,
      -0.22114582359790802,
      0.20785024762153625,
      0.19819028675556183,
      -0.2509208023548126
    ],
    [
      -0.5681756138801575,
      -0.06451504677534103,
      0.06036682799458504,
      0.009892050176858902,
      -0.1596653163433075,
      0.004830285906791687,
      -0.29723265767097473,
      -0.2234974503517151,
      -0.21050944924354553,
      0.2604231536388397
    ],
    [
      0.28239163756370544,
      -0.02223050966858864,
      -0.002501544775441289,
      0.13612452149391174,
      0.13191711902618408,
      -0.24400660395622253,
      0.18238067626953125,
      0.1943960189819336,
      -0.01832713931798935,
      -0.03892844170331955
    ],
    [
      0.0722367912530899,
      0.29077017307281494,
      -0.28322938084602356,
      0.1626058667898178,
      0.03888125345110893,
      -0.29004210233688354,
      0.17310702800750732,
      -0.2360875904560089,
      0.2921718955039978,
      -0.2032962292432785
    ],
    [
      0.05390193685889244,
      0.03917471319437027,
      0.03323144465684891,
      0.23981599509716034,
      -0.21217860281467438,
      -0.2207614928483963,
      -0.27403393387794495,
      -0.012977894395589828,
      -0.14980359375476837,
      0.012671000324189663
    ],
    [
      -0.04774472862482071,
      -0.03461826592683792,
      0.09676527976989746,
      -0.008248751051723957,
      -0.15234148502349854,
      -0.5896512269973755,
      -0.2757990062236786,
      0.2660888731479645,
      -0.05990622937679291,
      0.06383217871189117
    ],
    [
      0.07731827348470688,
      -0.36923453211784363,
      0.053957249969244,
      0.07834998518228531,
      0.012749992311000824,
      -0.6591771841049194,
      -0.13436727225780487,
      0.004354790784418583,
      -0.18067269027233124,
      -0.17644189298152924
    ],
    [
      0.011595395393669605,
      -0.10925315320491791,
      0.11900259554386139,
      -0.0210442915558815,
      0.06006782501935959,
      -0.06913985311985016,
      -0.2889880836009979,
      0.2757907509803772,
      0.06033066287636757,
      0.28277862071990967
    ],
    [
      -0.09526123106479645,
      -0.208745077252388,
      -0.7617513537406921,
      -0.021433820948004723,
      0.09217094630002975,
      -0.32413747906684875,
      -0.11060553789138794,
      0.19266468286514282,
      0.18225640058517456,
      0.11676561087369919
    ],
    [
      0.012408350594341755,
      -0.0033947762567549944,
      0.010912350378930569,
      -0.5777352452278137,
      0.09908967465162277,
      -0.10268575698137283,
      -0.17765061557292938,
      0.071739561855793,
      -0.2285713106393814,
      -0.0674876794219017
    ],
    [
      0.05387140437960625,
      -0.04385141655802727,
      0.08232193440198898,
      -0.4968947470188141,
      -0.0385809950530529,
      -0.007118327543139458,
      -0.17687149345874786,
      -0.17789503931999207,
      0.07966918498277664,
      0.033085212111473083
    ],
    [
      -0.416666716337204,
      -0.8253282308578491,
      -0.41497042775154114,
      0.23647969961166382,
      -0.10726866871118546,
      -0.15655428171157837,
      -0.1162826344370842,
      -0.1581663191318512,
      -0.28919413685798645,
      -0.18564435839653015
    ],
    [
      0.05623449385166168,
      0.05056164041161537,
      -0.17663221061229706,
      -0.18999280035495758,
      0.15523874759674072,
      0.1316576898097992,
      0.3046647012233734,
      0.09224541485309601,
      0.1527731567621231,
      -0.025408348068594933
    ],
    [
      -0.006013969425112009,
      -0.9495024681091309,
      0.1773630678653717,
      0.020267829298973083,
      0.10364493727684021,
      0.06075035408139229,
      -0.2951420247554779,
      -0.1551397144794464,
      0.08896507322788239,
      -0.06400463730096817
    ],
    [
      -0.9451483488082886,
      0.07199874520301819,
      0.0045252153649926186,
      0.015133993700146675,
      0.1194562166929245,
      0.14279012382030487,
      -0.11662575602531433,
      0.28408265113830566,
      0.15864500403404236,
      0.03970640152692795
    ],
    [
      0.033053282648324966,
      -0.44957756996154785,
      0.20886720716953278,
      -0.016675760969519615,
      -0.13123583793640137,
      0.26077136397361755,
      0.11230862140655518,
      0.07825648039579391,
      -0.06270178407430649,
      -0.09868527948856354
    ],
    [
      0.0037368456833064556,
      0.3297231197357178,
      0.00048441754188388586,
      -0.1077575832605362,
      0.3547753095626831,
      -0.12381208688020706,
      0.24998360872268677,
      0.07707097381353378,
      0.2834528088569641,
      0.1824551373720169
    ],
    [
      -0.10275578498840332,
      0.24770604074001312,
      0.03602276369929314,
      -0.825767457485199,
      -0.5058160424232483,
      -0.44072043895721436,
      -0.16383829712867737,
      -0.2240270972251892,
      0.21628448367118835,
      -0.06643570214509964
    ],
    [
      -0.13026584684848785,
      0.1052696481347084,
      0.058337703347206116,
      -0.22424693405628204,
      0.05269485339522362,
      0.15141689777374268,
      -0.25143566727638245,
      0.2749401032924652,
      -0.19241856038570404,
      -0.12366112321615219
    ],
    [
      -0.293172150850296,
      0.20678666234016418,
      -0.02438552863895893,
      0.07385522872209549,
      -0.037317100912332535,
      -0.017023731023073196,
      -0.10096694529056549,
      -0.25227880477905273,
      0.05076327919960022,
      -0.02820073813199997
    ],
    [
      0.035843078047037125,
      -0.2802954316139221,
      0.03672043979167938,
      0.10072855651378632,
      0.04174152389168739,
      -0.4649449586868286,
      0.15277601778507233,
      0.032518621534109116,
      0.21810786426067352,
      0.22348256409168243
    ],
    [
      -0.5456174612045288,
      0.2592127323150635,
      -0.6861178278923035,
      0.05578494071960449,
      -0.009572962298989296,
      0.08952906727790833,
      -0.17100533843040466,
      0.19011498987674713,
      -0.1564798504114151,
      -0.2795124650001526
    ],
    [
      0.005355538800358772,
      0.031154068186879158,
      0.1598600596189499,
      -0.08660759776830673,
      0.22593359649181366,
      0.13331559300422668,
      -0.156837597489357,
      -0.24392051994800568,
      0.1773606836795807,
      -0.17325356602668762
    ],
    [
      0.07516741007566452,
      -0.49327388405799866,
      0.14598830044269562,
      0.003938761074095964,
      -0.028292259201407433,
      0.10898913443088531,
      -0.22513727843761444,
      -0.0691295862197876,
      0.003100111847743392,
      -0.18272486329078674
    ],
    [
      -0.13286298513412476,
      -0.22987836599349976,
      0.18748080730438232,
      0.08830960094928741,
      0.08761628717184067,
      0.1709844022989273,
      -0.302853524684906,
      0.10577892512083054,
      0.11655797809362411,
      -0.23194631934165955
    ],
    [
      0.09857681393623352,
      -0.1697012186050415,
      0.027654647827148438,
      0.06204409524798393,
      0.2447362244129181,
      -0.18939651548862457,
      -0.24880005419254303,
      0.2925923466682434,
      0.1327422559261322,
      0.15370164811611176
    ],
    [
      0.09516819566488266,
      -0.15770339965820312,
      0.13904161751270294,
      -0.33950066566467285,
      0.169492706656456,
      0.14803101122379303,
      0.21606095135211945,
      -0.1579149216413498,
      -0.21373505890369415,
      0.11853150278329849
    ],
    [
      -0.35659024119377136,
      -0.27368637919425964,
      -0.5178282260894775,
      -0.3361310064792633,
      0.03716645389795303,
      -0.26848945021629333,
      -0.1337093710899353,
      -0.2800155580043793,
      0.19436736404895782,
      -0.0723939836025238
    ],
    [
      -0.44245481491088867,
      0.11045125871896744,
      -0.16633741557598114,
      0.12469547241926193,
      0.19113029539585114,
      -0.35699009895324707,
      -0.2482217401266098,
      -0.20851315557956696,
      -0.17118394374847412,
      0.03948478028178215
    ],
    [
      -0.43511784076690674,
      -0.18391971290111542,
      0.1377192884683609,
      -0.09257515519857407,
      -0.5237252116203308,
      -0.6344380974769592,
      0.12817074358463287,
      0.02233077958226204,
      -0.12223156541585922,
      -0.19365277886390686
    ],
    [
      0.048292793333530426,
      0.05938113480806351,
      0.06563984602689743,
      0.04557012394070625,
      -0.013192256912589073,
      -1.0892128944396973,
      0.20131324231624603,
      -0.0027107365895062685,
      -0.21016094088554382,
      0.2727116346359253
    ],
    [
      0.1346883624792099,
      -0.4718935489654541,
      -0.49991723895072937,
      -0.10420802980661392,
      0.01724947988986969,
      0.17383508384227753,
      -0.22559507191181183,
      0.2938922643661499,
      -0.13070780038833618,
      0.1866614669561386
    ],
    [
      0.03810786083340645,
      -0.10776150226593018,
      0.1851714849472046,
      -0.7719240784645081,
      -0.7171669006347656,
      -0.12300705164670944,
      0.2508554756641388,
      -0.13548947870731354,
      -0.1925608366727829,
      -0.20188480615615845
    ],
    [
      -0.33124780654907227,
      -0.39168789982795715,
      -0.22314424812793732,
      -0.07623651623725891,
      0.06898578256368637,
      0.06073657423257828,
      -0.2066131830215454,
      -0.18058647215366364,
      0.0669618770480156,
      -0.0045174164697527885
    ],
    [
      0.1699496954679489,
      -0.1389538049697876,
      -0.4074423015117645,
      -0.48429250717163086,
      -0.039770662784576416,
      -0.08936314284801483,
      0.036088742315769196,
      -0.07092054933309555,
      0.11668049544095993,
      -0.10517222434282303
    ],
    [
      0.12102466821670532,
      0.12505851686000824,
      -0.1139286532998085,
      0.18215489387512207,
      0.07624566555023193,
      -0.327670156955719,
      -0.17599453032016754,
      0.19827954471111298,
      0.1444278508424759,
      0.2469087839126587
    ],
    [
      -0.04997209459543228,
      0.08934666961431503,
      0.017322305589914322,
      -0.022908972576260567,
      -0.12377208471298218,
      0.20032791793346405,
      0.06399302929639816,
      -0.08159110695123672,
      -0.004496004432439804,
      0.31086722016334534
    ],
    [
      0.11530592292547226,
      -0.22201916575431824,
      0.12171254307031631,
      0.16855594515800476,
      -0.20000377297401428,
      -0.6553066372871399,
      0.18377216160297394,
      0.29656875133514404,
      -0.18424217402935028,
      0.12988196313381195
    ],
    [
      0.0746445581316948,
      0.016240013763308525,
      -0.047519102692604065,
      0.009861904196441174,
      0.10097403824329376,
      0.2782599925994873,
      0.11576282978057861,
      0.1439017355442047,
      0.27896252274513245,
      0.09846866875886917
    ],
    [
      0.007308964151889086,
      -0.25532102584838867,
      0.13261303305625916,
      -0.12230375409126282,
      0.030794678255915642,
      0.2413923740386963,
      -0.07072527706623077,
      0.2226562350988388,
      -0.06421970576047897,
      0.285373330116272
    ],
    [
      0.21463602781295776,
      -0.07271959632635117,
      0.0400482602417469,
      -0.6802704930305481,
      -0.5031324625015259,
      -0.502962589263916,
      -0.002155945636332035,
      -0.1102348193526268,
      -0.29851847887039185,
      -0.19126321375370026
    ],
    [
      0.026917265728116035,
      -0.14080236852169037,
      0.15064512193202972,
      0.17032530903816223,
      0.1590467244386673,
      0.16242659091949463,
      -0.25069382786750793,
      0.2987608015537262,
      -0.27866309881210327,
      -0.10396203398704529
    ],
    [
      -0.2246679961681366,
      0.17511910200119019,
      -0.19742320477962494,
      -0.2629826068878174,
      -0.22527055442333221,
      -0.41488662362098694,
      -0.14762099087238312,
      0.31085771322250366,
      -0.025828899815678596,
      0.09639520198106766
    ],
    [
      -0.2926482856273651,
      0.22616420686244965,
      -0.08340313285589218,
      -0.7839436531066895,
      0.14733436703681946,
      -0.19883766770362854,
      0.28717654943466187,
      -0.21479205787181854,
      -0.29359614849090576,
      -0.23756729066371918
    ],
    [
      0.12019143253564835,
      -0.27799421548843384,
      -1.0271873474121094,
      0.05902663245797157,
      0.09231530129909515,
      0.13108336925506592,
      -0.16085873544216156,
      -0.2257513701915741,
      0.21553564071655273,
      -0.15216901898384094
    ],
    [
      0.1177147924900055,
      0.21484939754009247,
      -0.2209666222333908,
      -0.624030351638794,
      -0.18169645965099335,
      -1.038151741027832,
      0.09711597859859467,
      -0.13176009058952332,
      -0.14020834863185883,
      -0.244465172290802
    ],
    [
      0.11824390292167664,
      -0.18135255575180054,
      -0.3062707781791687,
      -0.3143008351325989,
      -0.14726029336452484,
      -0.8027686476707458,
      0.12744435667991638,
      -0.12031383067369461,
      0.22150665521621704,
      0.2225981503725052
    ],
    [
      -0.39875927567481995,
      -0.5257492065429688,
      -0.18595632910728455,
      0.1615930050611496,
      -0.014655107632279396,
      -0.030283568426966667,
      0.19589701294898987,
      0.29989340901374817,
      0.2337864339351654,
      -0.24182112514972687
    ],
    [
      -0.0544099286198616,
      -0.1626722812652588,
      0.1899605244398117,
      -0.3807169198989868,
      -0.37962090969085693,
      -0.10879486054182053,
      -0.07345930486917496,
      0.11969774216413498,
      0.03843807801604271,
      -0.18880479037761688
    ],
    [
      0.05756427347660065,
      0.060363274067640305,
      -0.003007405437529087,
      -0.881388783454895,
      0.07959313690662384,
      0.11909198015928268,
      0.0880381315946579,
      -0.12223571538925171,
      0.021208381280303,
      -0.12148188054561615
    ],
    [
      0.061456698924303055,
      0.2247096449136734,
      -0.11506874114274979,
      -0.5574817657470703,
      -0.040090031921863556,
      0.015804648399353027,
      0.167624831199646,
      -0.23794648051261902,
      0.10722850263118744,
      -0.13495029509067535
    ],
    [
      -0.5529504418373108,
      -0.28288817405700684,
      0.16686831414699554,
      0.132558673620224,
      -0.26493310928344727,
      0.13966350257396698,
      0.24230636656284332,
      0.24005737900733948,
      0.1785556823015213,
      -0.04964110627770424
    ],
    [
      0.1344265341758728,
      0.24171346426010132,
      0.035384345799684525,
      -0.04999415948987007,
      -0.013258764520287514,
      0.25225546956062317,
      0.24108456075191498,
      0.20177823305130005,
      -0.1321706473827362,
      -0.0626283511519432
    ],
    [
      -0.29047253727912903,
      -0.14080829918384552,
      0.24716708064079285,
      -0.40095260739326477,
      -0.31493136286735535,
      -0.01886889338493347,
      -0.18974055349826813,
      0.07371290028095245,
      -0.0508350171148777,
      0.12646697461605072
    ],
    [
      -0.7010878920555115,
      -0.252076655626297,
      -0.8113261461257935,
      0.12923309206962585,
      0.29790204763412476,
      -0.018573760986328125,
      0.04676065593957901,
      -0.16292382776737213,
      -0.20228619873523712,
      -0.16015541553497314
    ],
    [
      0.01165363285690546,
      0.0692114531993866,
      0.042613957077264786,
      -0.07368479669094086,
      -0.7795822024345398,
      -0.7970897555351257,
      -0.27376484870910645,
      -0.22728674113750458,
      0.26481446623802185,
      0.11748642474412918
    ],
    [
      -1.067699670791626,
      -0.07268062978982925,
      0.037658292800188065,
      0.08120983093976974,
      0.15080079436302185,
      0.04913606494665146,
      0.2227618247270584,
      -0.11252779513597488,
      -0.010332449339330196,
      -0.19089607894420624
    ],
    [
      0.01818704791367054,
      0.3310960829257965,
      0.0705513134598732,
      0.27365902066230774,
      -0.06754010170698166,
      -0.011740503832697868,
      0.0652293860912323,
      0.25423845648765564,
      -0.2906895577907562,
      -0.15530294179916382
    ],
    [
      0.057736750692129135,
      -0.38840925693511963,
      0.09518684446811676,
      0.020479395985603333,
      -0.010257729329168797,
      0.1953110545873642,
      0.22599904239177704,
      0.30759114027023315,
      0.14320094883441925,
      -0.008647983893752098
    ],
    [
      0.17296253144741058,
      0.3644973337650299,
      -0.13990089297294617,
      0.19275273382663727,
      0.1268085092306137,
      -0.14429284632205963,
      -0.0753084346652031,
      -0.07467173039913177,
      -0.2212878316640854,
      -0.09649872034788132
    ],
    [
      0.04781830310821533,
      0.20975863933563232,
      0.02249583974480629,
      -1.0208319425582886,
      0.003973210230469704,
      -0.12279685586690903,
      0.28240758180618286,
      -0.3055645525455475,
      -0.07398676872253418,
      0.24524173140525818
    ],
    [
      0.11361271888017654,
      -0.22172419726848602,
      -0.6558501720428467,
      0.024149639531970024,
      0.053425006568431854,
      -0.14692823588848114,
      -0.26462048292160034,
      -0.003980795852839947,
      -0.06485441327095032,
      0.2032526135444641
    ],
    [
      -0.5273285508155823,
      -0.07936809957027435,
      -0.6523618698120117,
      0.049765992909669876,
      -0.11465594172477722,
      0.12198817729949951,
      -0.26454195380210876,
      -0.24876409769058228,
      -0.17945635318756104,
      -0.276964008808136
    ],
    [
      0.06773068755865097,
      -0.262336403131485,
      -0.25708064436912537,
      0.0714169442653656,
      -0.1605187952518463,
      0.06496722996234894,
      -0.09802727401256561,
      -0.2645717263221741,
      0.06945227831602097,
      0.1969122737646103
    ],
    [
      -1.0075443983078003,
      -0.006168845575302839,
      0.02975786291062832,
      0.04805544391274452,
      0.034782782196998596,
      0.046042025089263916,
      -0.24549894034862518,
      0.05157840996980667,
      -0.21238334476947784,
      -0.26128241419792175
    ],
    [
      0.04109605774283409,
      -0.6737555265426636,
      0.016927942633628845,
      0.11577994376420975,
      0.08251847326755524,
      -0.15520741045475006,
      0.17240621149539948,
      0.22471563518047333,
      0.0035473525058478117,
      0.13341288268566132
    ],
    [
      0.08151515573263168,
      0.23124806582927704,
      -0.011124617420136929,
      0.0785253494977951,
      -0.09336723387241364,
      -0.2189185619354248,
      -0.14995041489601135,
      0.26018694043159485,
      -0.07659240812063217,
      0.011310430243611336
    ],
    [
      -0.4101850092411041,
      0.06742428988218307,
      -0.006732011679559946,
      -0.3074284493923187,
      0.19189608097076416,
      -0.45822644233703613,
      -0.04520462453365326,
      -0.02242170460522175,
      -0.2862822115421295,
      0.19119574129581451
    ],
    [
      0.03329670801758766,
      0.21310847997665405,
      0.11108651012182236,
      0.26868343353271484,
      0.04874822124838829,
      0.1450445055961609,
      0.2920512557029724,
      0.06267467886209488,
      -0.06443269550800323,
      -0.08658316731452942
    ],
    [
      0.002231094753369689,
      0.2264932245016098,
      -0.30629923939704895,
      0.13313308358192444,
      -0.0026515373028814793,
      -0.5143952369689941,
      0.10129053890705109,
      0.20068244636058807,
      0.11816079169511795,
      0.25812828540802
    ],
    [
      -0.28408846259117126,
      -0.9199607968330383,
      0.010507998988032341,
      0.1526121199131012,
      -0.21539495885372162,
      0.14413388073444366,
      0.07289498299360275,
      -0.05130811780691147,
      0.0022473614662885666,
      0.13453924655914307
    ],
    [
      -0.26988375186920166,
      0.22923554480075836,
      0.08141645789146423,
      0.12224949896335602,
      0.2776618003845215,
      -0.07114642858505249,
      -0.22330071032047272,
      0.0144397197291255,
      -0.09174501895904541,
      0.11163210868835449
    ],
    [
      0.1596180945634842,
      -0.16129115223884583,
      -0.026783598586916924,
      0.2240830808877945,
      -0.4049566090106964,
      -0.07345261424779892,
      0.3070758283138275,
      0.2209601253271103,
      0.09178207814693451,
      -0.13638938963413239
    ],
    [
      -0.12767288088798523,
      -0.547061562538147,
      -0.6650596857070923,
      -0.2934682071208954,
      0.32113683223724365,
      0.22191211581230164,
      0.12543843686580658,
      -0.07942821830511093,
      0.27226951718330383,
      -0.08352945744991302
    ],
    [
      0.21001596748828888,
      -0.04168029874563217,
      -0.11251188069581985,
      -0.3200826346874237,
      -0.04718859866261482,
      -0.7368001937866211,
      0.09456466138362885,
      -0.0963483452796936,
      0.1452866643667221,
      0.20162197947502136
    ],
    [
      -0.14790183305740356,
      0.09705370664596558,
      -0.051763854920864105,
      0.10264652222394943,
      -0.4270159602165222,
      -0.11202429234981537,
      -0.10537654906511307,
      0.2770889401435852,
      -0.28384363651275635,
      -0.17774316668510437
    ],
    [
      -0.0007552107563242316,
      0.20608310401439667,
      0.107242152094841,
      -0.8918287754058838,
      -0.5725334882736206,
      0.11818749457597733,
      0.04608568921685219,
      -0.27085116505622864,
      -0.09962767362594604,
      0.1382502019405365
    ],
    [
      -0.21742773056030273,
      -0.3491888642311096,
      -0.7245388627052307,
      -0.007473375182598829,
      0.03393528237938881,
      0.13074053823947906,
      0.15182997286319733,
      -0.15362077951431274,
      -0.05305866897106171,
      -0.24415500462055206
    ],
    [
      0.025505315512418747,
      0.18856357038021088,
      0.054338425397872925,
      0.06488531827926636,
      -0.07695594429969788,
      -0.11665792018175125,
      0.11408989876508713,
      -0.2741090655326843,
      0.019630372524261475,
      -0.25704729557037354
    ],
    [
      -0.6467275619506836,
      -0.15159741044044495,
      -0.15461887419223785,
      -0.14866432547569275,
      0.05458547919988632,
      0.08935151994228363,
      0.0482565239071846,
      -0.17698879539966583,
      -0.30974146723747253,
      0.006920807063579559
    ],
    [
      -0.40972042083740234,
      -0.2163582295179367,
      0.08801432698965073,
      -0.025316759943962097,
      -0.011787504889070988,
      -0.12099528312683105,
      -0.25092241168022156,
      0.06305474787950516,
      -0.2094208002090454,
      0.0391816571354866
    ],
    [
      -0.6718202829360962,
      0.06992048770189285,
      -0.16757537424564362,
      0.09942814707756042,
      0.1888425052165985,
      0.15589779615402222,
      0.18975023925304413,
      0.0731939971446991,
      -0.015412460081279278,
      -0.005047704558819532
    ],
    [
      -0.01838264986872673,
      -0.5669169425964355,
      0.2591698169708252,
      -0.011920873075723648,
      0.10134323686361313,
      0.03328981250524521,
      0.09087499976158142,
      -0.19483762979507446,
      -0.24582460522651672,
      0.24116869270801544
    ],
    [
      0.06427565217018127,
      0.16035188734531403,
      -0.5315166115760803,
      0.051431525498628616,
      -0.21959291398525238,
      0.009440599009394646,
      -0.01671716384589672,
      -0.22247257828712463,
      -0.3131366968154907,
      0.002081305021420121
    ],
    [
      0.20220732688903809,
      0.29494231939315796,
      -0.19608348608016968,
      -0.3217078745365143,
      -0.7432737350463867,
      -0.6123727560043335,
      -0.08670534193515778,
      0.30701249837875366,
      -0.08249907940626144,
      0.018296340480446815
    ],
    [
      0.14504313468933105,
      -0.03773367777466774,
      0.10593990981578827,
      0.10436186194419861,
      0.2141331136226654,
      -0.0971517488360405,
      -0.2557277977466583,
      -0.27203911542892456,
      -0.16338784992694855,
      0.26100683212280273
    ],
    [
      0.07745648920536041,
      0.20945069193840027,
      -0.27820420265197754,
      -0.13876040279865265,
      0.3003271818161011,
      -0.029340574517846107,
      -0.31485873460769653,
      -0.039092689752578735,
      -0.07591826468706131,
      0.0047699883580207825
    ],
    [
      0.061823803931474686,
      0.14368131756782532,
      -0.5183956623077393,
      -0.027587169781327248,
      -0.18782207369804382,
      0.06760449707508087,
      0.156590536236763,
      0.1735716164112091,
      0.2874963879585266,
      0.15533186495304108
    ],
    [
      -0.6351877450942993,
      -0.14547203481197357,
      -0.6145992875099182,
      -0.021135369315743446,
      -0.04162067919969559,
      0.2120683491230011,
      -0.21605393290519714,
      -0.3098277151584625,
      -0.08477407693862915,
      0.05095832422375679
    ],
    [
      0.15040276944637299,
      0.27566713094711304,
      0.1278584748506546,
      0.10349662601947784,
      0.013263965025544167,
      0.015727093443274498,
      -0.17293637990951538,
      0.06183851510286331,
      -0.2199176400899887,
      0.10872108489274979
    ],
    [
      0.17736555635929108,
      0.33282482624053955,
      -0.232177272439003,
      0.287192165851593,
      -0.07884776592254639,
      0.041042447090148926,
      0.2886761426925659,
      0.171365424990654,
      -0.10030833631753922,
      0.18667817115783691
    ],
    [
      -0.6576839089393616,
      0.06731545925140381,
      0.1748979240655899,
      -0.0033934267703443766,
      0.015905793756246567,
      -0.020940527319908142,
      -0.20018887519836426,
      -0.14303383231163025,
      -0.021000517532229424,
      -0.25871047377586365
    ],
    [
      -0.25557976961135864,
      0.03470510244369507,
      -0.2057613730430603,
      -0.17201083898544312,
      -0.002734712092205882,
      -0.16665296256542206,
      0.292715847492218,
      -0.11415805667638779,
      -0.17583216726779938,
      -0.08424525707960129
    ],
    [
      -0.42931780219078064,
      0.021847693249583244,
      0.13551484048366547,
      -0.3242153525352478,
      -0.2718900740146637,
      0.22701852023601532,
      -0.2287573218345642,
      0.08564699441194534,
      -0.25765135884284973,
      -0.2814570963382721
    ],
    [
      -0.006299701984971762,
      -0.24475139379501343,
      0.13196861743927002,
      -0.12524157762527466,
      -0.16603589057922363,
      -0.6902545690536499,
      0.12994903326034546,
      0.2929922640323639,
      -0.047538429498672485,
      -0.19517910480499268
    ],
    [
      -0.2712542712688446,
      0.26547712087631226,
      0.0715980976819992,
      0.11137208342552185,
      0.14859968423843384,
      0.17943836748600006,
      0.11229569464921951,
      0.1544063538312912,
      0.1977737993001938,
      0.044841110706329346
    ],
    [
      0.07643888890743256,
      0.1322256475687027,
      -0.06929323077201843,
      -0.4516224265098572,
      -0.13050413131713867,
      0.15224330127239227,
      0.20032349228858948,
      -0.12814322113990784,
      -0.06601933389902115,
      0.12555518746376038
    ],
    [
      0.046867698431015015,
      0.20114897191524506,
      0.05000018700957298,
      0.06675494462251663,
      0.04349345341324806,
      -1.0983941555023193,
      -0.11650387942790985,
      0.03346836939454079,
      -0.21998779475688934,
      -0.27706852555274963
    ],
    [
      0.05595617741346359,
      -0.13892924785614014,
      -0.8235872387886047,
      -0.003193984739482403,
      0.06772734969854355,
      0.10738332569599152,
      0.28878191113471985,
      -0.12503741681575775,
      0.14080728590488434,
      -0.2565183639526367
    ],
    [
      -0.11390639841556549,
      -0.44638293981552124,
      -0.06999150663614273,
      0.13820840418338776,
      0.047892313450574875,
      -0.14654219150543213,
      -0.07841450721025467,
      -0.06326302140951157,
      -0.1203015074133873,
      -0.17322781682014465
    ],
    [
      0.09179771691560745,
      0.13721947371959686,
      0.09693855792284012,
      -0.39447250962257385,
      0.09183208644390106,
      -0.19824770092964172,
      -0.0742950588464737,
      -0.08513928204774857,
      -0.015376572497189045,
      -0.1384756714105606
    ],
    [
      0.07197802513837814,
      -0.10913439840078354,
      0.1616419553756714,
      -0.6837256550788879,
      -0.3657701015472412,
      -0.8112345337867737,
      0.21331748366355896,
      0.21726375818252563,
      -0.25151363015174866,
      -0.17255645990371704
    ],
    [
      0.11074411123991013,
      -0.04468846321105957,
      0.09297336637973785,
      -0.4287523627281189,
      0.051579613238573074,
      0.10671684145927429,
      -0.07337132096290588,
      -0.014572150073945522,
      0.23058649897575378,
      0.0862288847565651
    ],
    [
      -0.002601759973913431,
      -0.03799917921423912,
      -0.2515113949775696,
      -0.22089670598506927,
      0.18357795476913452,
      -0.001577309682033956,
      0.28062987327575684,
      0.25873708724975586,
      -0.16535893082618713,
      0.021494464948773384
    ],
    [
      -0.07816512137651443,
      0.016276543959975243,
      0.11477173119783401,
      0.16647569835186005,
      -0.1494302749633789,
      -0.4960545301437378,
      -0.22464917600154877,
      -0.2684895098209381,
      0.20285849273204803,
      -0.19540295004844666
    ],
    [
      -0.021016281098127365,
      -0.05783819034695625,
      0.005599771160632372,
      -0.11174174398183823,
      0.01239914633333683,
      -0.041044339537620544,
      0.22676290571689606,
      0.06826066225767136,
      -0.003944191616028547,
      0.04481004923582077
    ],
    [
      0.1285545974969864,
      -0.026478663086891174,
      0.1070830300450325,
      -0.05419771745800972,
      -0.036183856427669525,
      0.19819118082523346,
      -0.29854777455329895,
      0.031546711921691895,
      0.2888324558734894,
      -0.15868687629699707
    ],
    [
      -0.03441309928894043,
      -0.006553837563842535,
      0.011882844381034374,
      -0.03868982940912247,
      -0.00025104422820732,
      0.03512657806277275,
      -0.13567951321601868,
      0.13303980231285095,
      -0.10027018189430237,
      0.19869741797447205
    ],
    [
      0.09480633586645126,
      -0.5750302076339722,
      0.060415469110012054,
      0.14047576487064362,
      0.1278071105480194,
      0.08248227834701538,
      0.0011205141199752688,
      0.1678326576948166,
      0.024743104353547096,
      -0.2824985980987549
    ],
    [
      -0.14612242579460144,
      -0.031076686456799507,
      -0.011345963925123215,
      0.1532042920589447,
      -0.22843670845031738,
      0.10779830068349838,
      -0.26669591665267944,
      -0.30054745078086853,
      -0.02908971533179283,
      -0.20022842288017273
    ],
    [
      0.08503211289644241,
      -0.03288095444440842,
      -0.2083592712879181,
      0.11914009600877762,
      -0.1448623239994049,
      0.18983015418052673,
      0.10336765646934509,
      -0.059305109083652496,
      -0.2767464816570282,
      0.052339065819978714
    ],
    [
      -0.28264424204826355,
      0.20458610355854034,
      -0.36335691809654236,
      0.004302066285163164,
      -0.19763928651809692,
      -0.23570889234542847,
      -0.164934903383255,
      -0.03135102242231369,
      0.021392719820141792,
      0.05356708914041519
    ],
    [
      0.11560659855604172,
      -0.4263959228992462,
      -0.5492568016052246,
      -0.03519134968519211,
      0.1886163353919983,
      0.006067236885428429,
      -0.2662203013896942,
      0.24813100695610046,
      0.07694362848997116,
      0.05488404631614685
    ],
    [
      -0.033372752368450165,
      0.20671631395816803,
      -0.18529269099235535,
      0.07590015232563019,
      0.22985975444316864,
      -0.19746150076389313,
      0.19958120584487915,
      0.17446859180927277,
      0.2961418330669403,
      -0.073598712682724
    ],
    [
      -0.45408734679222107,
      -0.4808213710784912,
      -0.40572991967201233,
      -0.047311924397945404,
      0.18430428206920624,
      0.26776278018951416,
      0.2388639897108078,
      0.03129085898399353,
      0.006864826660603285,
      0.20938095450401306
    ],
    [
      0.09492287784814835,
      -0.32634231448173523,
      -0.2918965816497803,
      0.05042893812060356,
      0.03820803761482239,
      -0.197890967130661,
      -0.14873991906642914,
      0.2564573287963867,
      0.2633545696735382,
      -0.12322165071964264
    ],
    [
      0.017898622900247574,
      -0.06538281589746475,
      0.011959202587604523,
      0.16207991540431976,
      -0.4128253757953644,
      0.12973493337631226,
      -0.2842216491699219,
      -0.15087004005908966,
      -0.06439530104398727,
      0.02191215194761753
    ],
    [
      0.06750112771987915,
      0.18311020731925964,
      -0.09955909848213196,
      -0.7320681214332581,
      -0.5417342782020569,
      -0.3712339997291565,
      0.30324018001556396,
      -0.14899739623069763,
      -0.2629712224006653,
      0.21734419465065002
    ],
    [
      0.1153709813952446,
      0.26205992698669434,
      -0.3016026020050049,
      -0.9112316966056824,
      -0.5292382836341858,
      -0.16057910025119781,
      -0.0006963819614611566,
      0.13678693771362305,
      0.18513929843902588,
      -0.27198904752731323
    ],
    [
      0.08806714415550232,
      -0.42083460092544556,
      0.0837450698018074,
      0.02009088732302189,
      -0.01804194040596485,
      0.1267605423927307,
      -0.015789847820997238,
      0.20876972377300262,
      0.06595313549041748,
      0.2770443856716156
    ],
    [
      0.09636310487985611,
      -0.11022337526082993,
      0.16549476981163025,
      0.029101835563778877,
      0.3187440037727356,
      0.02402673102915287,
      0.31288036704063416,
      -0.18460169434547424,
      0.15893040597438812,
      -0.2359074354171753
    ],
    [
      0.1331789791584015,
      -0.0156747717410326,
      0.12696386873722076,
      -0.6261254549026489,
      -0.6952005624771118,
      0.008068772032856941,
      -0.13010020554065704,
      0.12523972988128662,
      -0.1876143515110016,
      -0.09775720536708832
    ],
    [
      -0.02565566636621952,
      0.13066956400871277,
      0.08034685999155045,
      -0.06606484949588776,
      -0.22566606104373932,
      -0.014399035833775997,
      0.16298452019691467,
      -0.2680251896381378,
      -0.09662764519453049,
      -0.30484244227409363
    ],
    [
      0.042033497244119644,
      -0.07023818045854568,
      0.09438137710094452,
      0.2227439135313034,
      -0.6577510833740234,
      -0.12087637931108475,
      -0.05083663761615753,
      -0.0031533781439065933,
      -0.07218468934297562,
      -0.1988268792629242
    ],
    [
      -0.3285810649394989,
      -0.02313300035893917,
      0.11528201401233673,
      -0.1895550787448883,
      0.14446966350078583,
      -0.47576895356178284,
      0.014141496270895004,
      -0.24677518010139465,
      -0.29673755168914795,
      0.03133884817361832
    ],
    [
      -0.20601586997509003,
      0.08093354851007462,
      0.10998823493719101,
      -0.8367360830307007,
      -0.18161918222904205,
      -0.2719842195510864,
      -0.1802421510219574,
      -0.22077208757400513,
      -0.13382062315940857,
      0.1396162360906601
    ],
    [
      -0.052180640399456024,
      0.14003531634807587,
      -0.12234668433666229,
      -0.00358114717528224,
      -0.02905414067208767,
      -0.23564796149730682,
      -0.018486900255084038,
      -0.2876070737838745,
      -0.007262231782078743,
      -0.10388576984405518
    ],
    [
      0.010434171184897423,
      -0.04631870985031128,
      0.04711490496993065,
      -0.584150493144989,
      0.044038642197847366,
      0.019209787249565125,
      -0.08328672498464584,
      0.27450841665267944,
      0.21222570538520813,
      0.08930891007184982
    ],
    [
      -0.4537261426448822,
      -0.2649083137512207,
      -0.32318204641342163,
      0.15198637545108795,
      0.2620041072368622,
      -0.004801541566848755,
      0.2438768744468689,
      0.2967793047428131,
      -0.019000714644789696,
      -0.11742361634969711
    ],
    [
      0.03353201597929001,
      -0.08992204070091248,
      -0.8447128534317017,
      0.014702037908136845,
      0.036854080855846405,
      0.22117292881011963,
      -0.009077544324100018,
      0.20805740356445312,
      0.2812802791595459,
      -0.09910428524017334
    ],
    [
      0.08886179327964783,
      -0.07855731248855591,
      -0.22936640679836273,
      -0.1772157847881317,
      0.1484014391899109,
      0.07081129401922226,
      -0.05561839044094086,
      0.053702499717473984,
      0.1976175159215927,
      0.13182953000068665
    ],
    [
      0.13511866331100464,
      0.1893683224916458,
      -0.20142287015914917,
      -0.3880225121974945,
      -0.38853827118873596,
      0.13220643997192383,
      -0.2785234749317169,
      -0.23608899116516113,
      0.20825552940368652,
      0.18692444264888763
    ],
    [
      -0.4181723892688751,
      0.14727282524108887,
      -0.040931735187768936,
      0.09357044100761414,
      0.025587163865566254,
      0.09322100877761841,
      0.07028365135192871,
      0.2411201000213623,
      0.19175995886325836,
      -0.1719581037759781
    ],
    [
      -0.11855040490627289,
      -0.003026096848770976,
      0.06330972909927368,
      0.1487000286579132,
      -0.8472409248352051,
      0.04462820291519165,
      0.011182711459696293,
      -0.1476842164993286,
      0.24942059814929962,
      -0.08394243568181992
    ],
    [
      -0.5430871844291687,
      -0.2554028630256653,
      0.004911801777780056,
      -0.26805686950683594,
      0.050181444734334946,
      0.2891467809677124,
      0.012945324182510376,
      -0.07790400832891464,
      0.29792025685310364,
      0.23345153033733368
    ],
    [
      0.1302558183670044,
      0.005609642714262009,
      0.045909252017736435,
      -0.13336950540542603,
      0.06017394736409187,
      0.32590770721435547,
      0.01671723835170269,
      -0.2821969985961914,
      0.17356637120246887,
      0.28380176424980164
    ],
    [
      0.12578915059566498,
      -0.14000415802001953,
      -0.09456023573875427,
      -0.005040338262915611,
      -0.2574053704738617,
      -0.07255151122808456,
      0.25798067450523376,
      0.03226250782608986,
      0.29804009199142456,
      -0.20999643206596375
    ],
    [
      -0.1743164360523224,
      -0.45690858364105225,
      -0.5692328810691833,
      0.16303898394107819,
      0.14996689558029175,
      -0.1218145415186882,
      0.27859169244766235,
      0.2948729693889618,
      -0.1859365552663803,
      -0.010907333344221115
    ],
    [
      0.21188725531101227,
      -0.388277143239975,
      0.040726784616708755,
      -0.34643641114234924,
      0.12871837615966797,
      0.07202234864234924,
      0.131645068526268,
      0.22691583633422852,
      -0.0501738078892231,
      -0.31609731912612915
    ],
    [
      0.044798221439123154,
      -0.0496554858982563,
      0.03757388889789581,
      0.08421580493450165,
      -0.49651527404785156,
      -0.39800578355789185,
      0.19934740662574768,
      0.09002285450696945,
      0.07244065403938293,
      0.14079627394676208
    ],
    [
      0.07912860065698624,
      -0.15512551367282867,
      0.029176296666264534,
      0.018968552350997925,
      -0.8745589256286621,
      0.03326826170086861,
      -0.004219419788569212,
      0.24528712034225464,
      -0.30183807015419006,
      0.2974647581577301
    ],
    [
      -0.35700979828834534,
      0.020578140392899513,
      0.08532547950744629,
      0.06874405592679977,
      -0.14845260977745056,
      -0.0130796879529953,
      -0.19721825420856476,
      0.039087750017642975,
      0.13292542099952698,
      0.06535446643829346
    ],
    [
      -0.4298158288002014,
      0.09660273045301437,
      0.08816296607255936,
      -0.02245388925075531,
      0.09954327344894409,
      -0.021658575162291527,
      0.1274629384279251,
      -0.2255275696516037,
      -0.2700270712375641,
      -0.008977496065199375
    ],
    [
      -0.5683901309967041,
      -0.07781797647476196,
      0.12651784718036652,
      0.008047882467508316,
      -0.023634329438209534,
      -0.001935515902005136,
      -0.15281423926353455,
      -0.016179298982024193,
      0.08146741986274719,
      0.2557325065135956
    ],
    [
      -0.325491726398468,
      0.07280147820711136,
      -0.7321047782897949,
      0.025308609008789062,
      0.036924269050359726,
      0.02278004214167595,
      0.19396041333675385,
      0.21696485579013824,
      -0.12267643213272095,
      -0.04408629983663559
    ],
    [
      0.04687613993883133,
      0.02286722883582115,
      0.041882798075675964,
      0.28909677267074585,
      -0.29927122592926025,
      0.1922392100095749,
      -0.19043433666229248,
      -0.2582385540008545,
      0.24352967739105225,
      -0.09421227127313614
    ],
    [
      0.021184010431170464,
      0.17068998515605927,
      0.046314820647239685,
      -0.9838689565658569,
      -0.5756208300590515,
      -0.2228061854839325,
      -0.024663111194968224,
      -0.2087586373090744,
      -0.3045564293861389,
      0.1758812963962555
    ],
    [
      -0.38126152753829956,
      -0.13330748677253723,
      0.15346567332744598,
      -0.17116934061050415,
      -0.3190162181854248,
      0.08154083788394928,
      0.2759614884853363,
      -0.0348738357424736,
      -0.018658988177776337,
      0.14775735139846802
    ],
    [
      0.017387859523296356,
      0.05221685767173767,
      0.10373371094465256,
      0.10463541001081467,
      -0.9314513206481934,
      -0.24956075847148895,
      0.21602638065814972,
      0.04879789426922798,
      0.07366438210010529,
      0.30373939871788025
    ],
    [
      0.06102292239665985,
      -0.02868393063545227,
      0.1287078559398651,
      -0.9533947110176086,
      -0.21093356609344482,
      -0.16108781099319458,
      -0.054986242204904556,
      -0.14849798381328583,
      0.058370817452669144,
      -0.26139262318611145
    ],
    [
      -0.14688603579998016,
      0.3163604736328125,
      -0.1923823058605194,
      -0.13498619198799133,
      0.05866152420639992,
      -0.037936389446258545,
      0.046444378793239594,
      -0.31605449318885803,
      0.18006455898284912,
      -0.2813234329223633
    ],
    [
      -0.048840317875146866,
      -0.8547086715698242,
      -0.39982134103775024,
      0.2111853063106537,
      -0.25233739614486694,
      0.01338344719260931,
      0.01408698596060276,
      0.2909742295742035,
      0.10095589607954025,
      0.15436074137687683
    ],
    [
      -0.13050532341003418,
      -0.10314435511827469,
      0.22747164964675903,
      0.11747891455888748,
      0.15862691402435303,
      -0.11775949597358704,
      -0.252381294965744,
      0.06384819746017456,
      -0.23730981349945068,
      0.2217155396938324
    ],
    [
      0.14533096551895142,
      -0.4438471496105194,
      -0.3128206133842468,
      0.09994188696146011,
      -0.33809131383895874,
      -0.45153599977493286,
      -0.22951845824718475,
      0.05493271350860596,
      0.06141019985079765,
      0.20419488847255707
    ],
    [
      0.045823100954294205,
      0.013085516169667244,
      -0.08262860029935837,
      0.10581400990486145,
      -0.20716340839862823,
      -0.18582811951637268,
      0.26778098940849304,
      -0.10643640160560608,
      0.16953980922698975,
      0.0678170770406723
    ],
    [
      0.08493894338607788,
      0.12028384208679199,
      -0.3367529511451721,
      0.11490233242511749,
      0.13705089688301086,
      -0.3471439480781555,
      -0.14799891412258148,
      0.013410809449851513,
      0.1566842496395111,
      -0.0447598360478878
    ],
    [
      0.04305148124694824,
      0.32946982979774475,
      -0.07743795216083527,
      0.24967561662197113,
      0.10214870423078537,
      0.16052620112895966,
      0.07435046881437302,
      0.055659402161836624,
      0.23269958794116974,
      -0.015848316252231598
    ],
    [
      0.08332149684429169,
      0.0832345113158226,
      -0.34333735704421997,
      0.09077896177768707,
      -0.34124869108200073,
      0.021414978429675102,
      -0.06774933636188507,
      0.0981244146823883,
      -0.03783872723579407,
      0.06250850856304169
    ],
    [
      0.029090700671076775,
      0.14238449931144714,
      0.09338412433862686,
      -0.5936815738677979,
      0.14779514074325562,
      -0.8424438238143921,
      -0.14114591479301453,
      0.1244894489645958,
      0.29146769642829895,
      0.1028246283531189
    ],
    [
      -0.49640601873397827,
      -0.15725958347320557,
      -0.6818510293960571,
      0.07134527713060379,
      0.05531896650791168,
      0.02684755250811577,
      -0.24257072806358337,
      0.16876906156539917,
      0.30045005679130554,
      -0.21937811374664307
    ],
    [
      0.057209551334381104,
      -0.21300004422664642,
      0.009265022352337837,
      0.18206264078617096,
      -0.697090208530426,
      -0.1258578598499298,
      0.11373411118984222,
      0.14362281560897827,
      -0.12359786778688431,
      -0.1726369857788086
    ],
    [
      0.08179119974374771,
      -0.3103559911251068,
      0.10200675576925278,
      -0.3110347092151642,
      0.08736075460910797,
      0.3054986000061035,
      -0.2625942826271057,
      -0.15640638768672943,
      -0.24328860640525818,
      0.18848130106925964
    ],
    [
      0.2072441279888153,
      -0.32563677430152893,
      0.11698000133037567,
      0.1086435467004776,
      -0.2226243019104004,
      0.13163216412067413,
      0.1437283754348755,
      -0.05643302574753761,
      0.21273189783096313,
      -0.0196329727768898
    ],
    [
      0.026822548359632492,
      0.22242920100688934,
      -0.3100101351737976,
      -0.4821217656135559,
      -0.02535075880587101,
      -0.005598500836640596,
      0.022395167499780655,
      -0.19375021755695343,
      0.2519926428794861,
      -0.19554050266742706
    ],
    [
      -0.23680004477500916,
      -0.9096425175666809,
      -0.8564125895500183,
      0.09758405387401581,
      -0.006662709638476372,
      0.16317099332809448,
      0.30527812242507935,
      0.10270878672599792,
      0.2764756977558136,
      -0.22010594606399536
    ],
    [
      0.0768730565905571,
      0.17375746369361877,
      -0.07633113861083984,
      0.0003633939486462623,
      -0.7449579238891602,
      -0.0006363438442349434,
      -0.3021010756492615,
      -0.18881413340568542,
      -0.27259495854377747,
      -0.03990548104047775
    ],
    [
      0.010798169299960136,
      -1.1045581102371216,
      -0.0018578105373308063,
      0.1658477783203125,
      0.049088288098573685,
      0.0032574711367487907,
      -0.13965140283107758,
      -0.09300829470157623,
      -0.28035539388656616,
      0.29457759857177734
    ],
    [
      -0.05130791664123535,
      -0.002804758958518505,
      0.032506417483091354,
      0.0771934986114502,
      -0.4042346775531769,
      -0.05475252866744995,
      -0.2740931212902069,
      0.11771569401025772,
      -0.16227129101753235,
      0.12314210832118988
    ],
    [
      -0.20961381494998932,
      0.10137350112199783,
      0.11047769337892532,
      0.11748825758695602,
      -0.2658054232597351,
      0.19682233035564423,
      -0.2006550431251526,
      -0.29576975107192993,
      0.2058456540107727,
      0.05385151877999306
    ],
    [
      -0.2971927523612976,
      -0.48380571603775024,
      0.18423861265182495,
      -0.0400024950504303,
      -0.16869398951530457,
      -0.0677885040640831,
      -0.2693006098270416,
      0.1557856947183609,
      -0.208363875746727,
      -0.10763834416866302
    ],
    [
      -0.9757664203643799,
      -0.21075083315372467,
      -0.42325514554977417,
      0.08202669769525528,
      -0.05090157315135002,
      0.14446429908275604,
      0.2760849893093109,
      0.06450171768665314,
      -0.1083841472864151,
      -0.2605215907096863
    ],
    [
      -0.6597755551338196,
      -0.6625759601593018,
      -0.657332718372345,
      0.11849511414766312,
      -0.03632737696170807,
      0.07941336184740067,
      0.013158312998712063,
      -0.27324536442756653,
      0.26368799805641174,
      -0.12086085975170135
    ],
    [
      -0.5761338472366333,
      -0.23315688967704773,
      -0.6331093907356262,
      0.04948471859097481,
      -0.14355219900608063,
      0.07018201798200607,
      -0.09300900995731354,
      0.2288435697555542,
      0.24404394626617432,
      0.31348535418510437
    ],
    [
      0.013647129759192467,
      0.2561265826225281,
      -0.38469046354293823,
      -0.22849711775779724,
      0.10913115739822388,
      0.024629836902022362,
      0.08752450346946716,
      0.18076975643634796,
      0.20050492882728577,
      0.14861002564430237
    ],
    [
      -0.09741324931383133,
      0.0019694853108376265,
      0.006413574330508709,
      0.15158362686634064,
      -0.167922705411911,
      -0.27856120467185974,
      0.1747092455625534,
      0.2096412479877472,
      -0.0058700707741081715,
      -0.09351196885108948
    ],
    [
      -0.27002832293510437,
      0.10977393388748169,
      0.14042246341705322,
      -0.43212392926216125,
      -0.7418584227561951,
      -0.6328363418579102,
      0.24708883464336395,
      0.29644784331321716,
      0.312959760427475,
      0.2823130190372467
    ],
    [
      -0.07503743469715118,
      0.15509918332099915,
      0.10740960389375687,
      -0.10634534060955048,
      -0.15899808704853058,
      0.25968214869499207,
      -0.03313798829913139,
      0.11660773307085037,
      -0.1478796750307083,
      -0.16312694549560547
    ],
    [
      -0.1072852835059166,
      -0.13059253990650177,
      0.10523607581853867,
      0.10496913641691208,
      -0.11863790452480316,
      0.21945156157016754,
      -0.16834872961044312,
      0.021255237981677055,
      -0.1981923133134842,
      0.05176723375916481
    ],
    [
      0.31250470876693726,
      -0.2867283225059509,
      0.12266948819160461,
      -0.7010083794593811,
      -0.22508831322193146,
      -0.550783097743988,
      0.0005330773419700563,
      -0.21945491433143616,
      0.08031222224235535,
      -0.2983871400356293
    ],
    [
      -0.06024698540568352,
      -0.07401981949806213,
      -0.36384859681129456,
      0.12393698841333389,
      -0.12130378186702728,
      -0.3943593502044678,
      -0.1782412976026535,
      -0.14109204709529877,
      -0.18711844086647034,
      0.039103131741285324
    ],
    [
      0.04629148915410042,
      0.35213977098464966,
      0.04978882521390915,
      -0.16347727179527283,
      0.3221311867237091,
      0.027914920821785927,
      -0.06823299080133438,
      0.22192957997322083,
      0.2592407763004303,
      -0.2662196457386017
    ],
    [
      -0.39406025409698486,
      -0.16744472086429596,
      -0.5650177001953125,
      -0.07499956339597702,
      0.13021281361579895,
      -0.1860673725605011,
      -0.3090690076351166,
      -0.2722986936569214,
      -0.1649961620569229,
      0.1982661336660385
    ],
    [
      0.11057402938604355,
      0.25237715244293213,
      -0.018539350479841232,
      -0.40309417247772217,
      0.3690045475959778,
      -0.2880643904209137,
      0.11939473450183868,
      0.15807226300239563,
      0.09776376932859421,
      0.10437070578336716
    ],
    [
      -0.8035910129547119,
      -0.7904654741287231,
      -0.3988742530345917,
      0.164576455950737,
      -0.2384512573480606,
      -0.039262786507606506,
      0.28107568621635437,
      0.23968669772148132,
      -0.22751903533935547,
      -0.26380056142807007
    ],
    [
      0.13188883662223816,
      0.026631182059645653,
      -0.34111288189888,
      0.10833518207073212,
      -0.39662623405456543,
      0.10941921174526215,
      0.2268701195716858,
      0.2253442406654358,
      -0.06067020073533058,
      0.027483396232128143
    ],
    [
      -0.5163084864616394,
      0.0766722559928894,
      -0.008183776400983334,
      0.1154576912522316,
      -0.24514220654964447,
      0.1703953742980957,
      0.21078981459140778,
      -0.08858202397823334,
      0.08633715659379959,
      -0.2306915670633316
    ],
    [
      -0.37026721239089966,
      -0.3633160889148712,
      -0.7180681824684143,
      0.08200760185718536,
      -0.0036400349345058203,
      -0.01735764741897583,
      0.22122246026992798,
      0.052230872213840485,
      -0.1541210561990738,
      -0.08582017570734024
    ],
    [
      -0.17014852166175842,
      0.06383185088634491,
      0.1253097802400589,
      0.17579242587089539,
      -0.3085906207561493,
      -0.11184249073266983,
      0.07422878593206406,
      -0.12358851730823517,
      0.2079279124736786,
      -0.03515641391277313
    ],
    [
      0.007903644815087318,
      -0.4050937592983246,
      0.18803757429122925,
      -0.32385870814323425,
      -0.10195542126893997,
      -0.5363019108772278,
      0.2405824214220047,
      0.018278246745467186,
      0.14241164922714233,
      -0.24855464696884155
    ],
    [
      0.0492965504527092,
      0.18676283955574036,
      0.1289755403995514,
      0.23841683566570282,
      -0.003404213348403573,
      0.02676757425069809,
      0.10506776720285416,
      -0.11370116472244263,
      -0.12867841124534607,
      -0.2911422550678253
    ],
    [
      -0.8975791335105896,
      -0.3083125054836273,
      0.013974680565297604,
      0.026501359418034554,
      0.03801587596535683,
      0.03411529213190079,
      -0.05840229615569115,
      -0.31242379546165466,
      0.28237760066986084,
      -0.23138700425624847
    ],
    [
      0.11543427407741547,
      0.15276919305324554,
      0.044471804052591324,
      0.0036969895008951426,
      -0.37398314476013184,
      0.25812411308288574,
      0.009011461399495602,
      0.2884010970592499,
      0.14753839373588562,
      0.13509267568588257
    ],
    [
      -0.06226933002471924,
      -0.37917324900627136,
      -0.6726725697517395,
      0.008163485676050186,
      0.2122238427400589,
      0.1800311952829361,
      0.28729426860809326,
      0.296562522649765,
      0.2470880001783371,
      -0.17749379575252533
    ],
    [
      -0.14292189478874207,
      0.09300167858600616,
      -0.17948591709136963,
      -0.05757628008723259,
      -0.22920183837413788,
      0.2028496265411377,
      -0.0212642103433609,
      0.3061004877090454,
      -0.24520422518253326,
      -0.31193143129348755
    ],
    [
      0.004820177331566811,
      0.13293872773647308,
      -0.16763508319854736,
      -0.2587280869483948,
      -0.009998740628361702,
      0.018241770565509796,
      -0.04236504063010216,
      0.16053913533687592,
      -0.13448269665241241,
      0.2487478107213974
    ],
    [
      -0.6049160361289978,
      -0.04427441209554672,
      0.08387859165668488,
      0.10252228379249573,
      -0.015267382375895977,
      -0.3666341006755829,
      -0.012632586993277073,
      -0.10676052421331406,
      -0.10104504972696304,
      -0.05845073610544205
    ],
    [
      0.14138904213905334,
      0.08675229549407959,
      -0.04949546977877617,
      -0.775278627872467,
      -0.7041043639183044,
      -0.8615196943283081,
      0.15282145142555237,
      0.17669133841991425,
      0.23896671831607819,
      0.025033410638570786
    ],
    [
      -0.042210374027490616,
      -0.13124407827854156,
      0.08024189621210098,
      -0.48971256613731384,
      0.16335786879062653,
      -0.3027622699737549,
      -0.29500043392181396,
      -0.22773413360118866,
      0.2575523257255554,
      0.2386908084154129
    ],
    [
      -0.023183679208159447,
      -0.006504987366497517,
      0.1150456964969635,
      0.040295690298080444,
      0.16306068003177643,
      -0.4679046869277954,
      0.05060065537691116,
      0.28650733828544617,
      -0.22276148200035095,
      0.3150440454483032
    ],
    [
      -0.8162106871604919,
      -0.4501567482948303,
      -0.07225479185581207,
      0.10488642007112503,
      0.10898895561695099,
      -0.013919582590460777,
      0.14473956823349,
      0.08369103074073792,
      -0.03520172834396362,
      -0.3147341310977936
    ],
    [
      0.1720331758260727,
      -0.32970356941223145,
      -0.44818922877311707,
      0.19089528918266296,
      -0.27025750279426575,
      0.11235655844211578,
      0.1929648369550705,
      -0.20582835376262665,
      -0.2550244927406311,
      -0.17191387712955475
    ],
    [
      0.05182863399386406,
      0.2321314960718155,
      0.011069580912590027,
      -0.43018972873687744,
      -0.3384436070919037,
      -0.7269042730331421,
      0.31602194905281067,
      -0.0034296615049242973,
      -0.25024551153182983,
      -0.21603655815124512
    ],
    [
      -0.013176960870623589,
      -0.03438301756978035,
      -0.00962135475128889,
      -0.05949252098798752,
      -0.10189919173717499,
      0.0033002460841089487,
      -0.0030961912125349045,
      -0.1018044650554657,
      0.0754125565290451,
      -0.18022243678569794
    ],
    [
      -0.549652636051178,
      -0.14295274019241333,
      -0.17286403477191925,
      -0.008614017628133297,
      0.1202363446354866,
      0.26671460270881653,
      0.09113650768995285,
      -0.0018506728811189532,
      -0.22982746362686157,
      -0.12710711359977722
    ],
    [
      0.0006423851009458303,
      -0.31283676624298096,
      0.09646134823560715,
      0.146480992436409,
      0.25082412362098694,
      -0.063111312687397,
      -0.07730450481176376,
      0.31525495648384094,
      -0.05063243210315704,
      -0.28400877118110657
    ],
    [
      0.03645353391766548,
      0.079802967607975,
      0.020939353853464127,
      0.017378492280840874,
      -1.0128227472305298,
      0.0497647263109684,
      -0.2194625288248062,
      0.10883866250514984,
      0.2382701188325882,
      -0.20415447652339935
    ],
    [
      -0.43872082233428955,
      -0.0294886976480484,
      0.02015594206750393,
      0.028683146461844444,
      -0.11278486251831055,
      -0.03623837232589722,
      -0.08741111308336258,
      0.10430089384317398,
      0.09554275870323181,
      -0.25461265444755554
    ],
    [
      0.06791448593139648,
      -0.14264683425426483,
      0.17286421358585358,
      -0.8987619280815125,
      -0.19533196091651917,
      0.026718176901340485,
      0.21806158125400543,
      0.004110813606530428,
      -0.17089223861694336,
      -0.2444429248571396
    ],
    [
      -0.3885163962841034,
      0.14058803021907806,
      -0.6813717484474182,
      -0.033340614289045334,
      0.12824895977973938,
      0.21111352741718292,
      -0.27661722898483276,
      0.06269579380750656,
      0.03823055326938629,
      0.29023477435112
    ],
    [
      0.08210477232933044,
      0.20393462479114532,
      -0.004120489116758108,
      0.31337711215019226,
      0.0653197392821312,
      -0.2157134860754013,
      0.05832806974649429,
      -0.16738398373126984,
      0.07907454669475555,
      0.2198145091533661
    ],
    [
      -0.3738502562046051,
      -0.35004377365112305,
      0.02985772117972374,
      0.016294507309794426,
      -0.04109535738825798,
      0.23430024087429047,
      0.14176535606384277,
      -0.10484670847654343,
      0.045830175280570984,
      -0.04757857695221901
    ],
    [
      -0.3948077857494354,
      0.03154128044843674,
      -0.5230202674865723,
      0.08314132690429688,
      0.1800292730331421,
      -0.2700498104095459,
      0.013860726729035378,
      0.2920342981815338,
      0.1428147405385971,
      -0.12471069395542145
    ],
    [
      0.13242888450622559,
      -0.15398097038269043,
      0.11616494506597519,
      0.24036848545074463,
      0.2796218991279602,
      0.015986472368240356,
      0.114647775888443,
      -0.052482765167951584,
      -0.08876297622919083,
      0.006082193460315466
    ],
    [
      -0.09027552604675293,
      0.14068731665611267,
      0.11792375892400742,
      -0.27497315406799316,
      -0.3522860109806061,
      -0.8790873289108276,
      0.040433771908283234,
      0.12576930224895477,
      0.3002263903617859,
      -0.297956258058548
    ],
    [
      -0.5198597311973572,
      -0.10515595227479935,
      0.14400377869606018,
      -0.004519340582191944,
      -0.04398948699235916,
      -0.03232540190219879,
      -0.03781607002019882,
      0.22569479048252106,
      0.23213499784469604,
      -0.182316854596138
    ],
    [
      -0.6507158279418945,
      -0.6599919199943542,
      -0.2540541887283325,
      -0.03271820396184921,
      0.24366311728954315,
      -0.20828957855701447,
      0.22444365918636322,
      -0.17664092779159546,
      0.02583010494709015,
      -0.014778618700802326
    ],
    [
      0.21726475656032562,
      -0.7037596702575684,
      -0.47348400950431824,
      0.024352148175239563,
      0.1841251701116562,
      0.013507554307579994,
      0.09800887852907181,
      -0.08356968313455582,
      -0.2948889434337616,
      0.03609421104192734
    ],
    [
      -0.060084979981184006,
      0.16768589615821838,
      0.08581303060054779,
      0.11240189522504807,
      0.17098833620548248,
      -0.4766479432582855,
      -0.303376168012619,
      0.03533460944890976,
      0.09182704985141754,
      -0.24324502050876617
    ],
    [
      0.14468811452388763,
      -0.1804971694946289,
      -0.3055405914783478,
      0.07100219279527664,
      0.12197472155094147,
      -0.04320170730352402,
      -0.10084917396306992,
      0.0343204028904438,
      -0.23310844600200653,
      0.19490386545658112
    ],
    [
      0.10960736870765686,
      -0.36610305309295654,
      -0.5754668116569519,
      0.11897524446249008,
      -0.31887754797935486,
      -0.1939687579870224,
      0.18863390386104584,
      -0.15716047585010529,
      0.060227032750844955,
      0.2599325478076935
    ],
    [
      0.006247618701308966,
      0.05905730649828911,
      0.2252572774887085,
      0.1444341093301773,
      0.23938468098640442,
      -0.03007194586098194,
      -0.27281662821769714,
      0.04950498044490814,
      -0.1869383156299591,
      -0.16354821622371674
    ],
    [
      -0.38492822647094727,
      0.17186106741428375,
      -0.5812389254570007,
      -0.0008896073559299111,
      -0.0009815535740926862,
      0.11124894767999649,
      0.1727001667022705,
      -0.22139586508274078,
      0.14017727971076965,
      -0.160629540681839
    ],
    [
      -0.061790332198143005,
      -0.21723856031894684,
      -0.7782496213912964,
      0.09053421765565872,
      -0.1390318125486374,
      0.2832866609096527,
      0.12744374573230743,
      -0.10938380658626556,
      -0.18517939746379852,
      -0.2914664149284363
    ],
    [
      -0.1688540279865265,
      -0.7815026044845581,
      -0.0899394229054451,
      0.03783022612333298,
      0.16207660734653473,
      0.044207293540239334,
      -0.06423662602901459,
      -0.14098763465881348,
      -0.04448328912258148,
      0.1671580672264099
    ],
    [
      -0.4021008014678955,
      -0.14318276941776276,
      0.08812213689088821,
      0.00427819462493062,
      -0.054492902010679245,
      -0.21663898229599,
      -0.21055996417999268,
      -0.23681789636611938,
      -0.1924671232700348,
      -0.28913336992263794
    ],
    [
      -0.20925620198249817,
      0.22990643978118896,
      -0.17565467953681946,
      0.10497035831212997,
      -0.40601232647895813,
      -0.04920610040426254,
      -0.02619965188205242,
      -0.23880183696746826,
      0.007690774276852608,
      0.2634032070636749
    ],
    [
      -0.045424412935972214,
      0.3090902268886566,
      0.010312804952263832,
      -0.08379961550235748,
      0.17070333659648895,
      0.18056373298168182,
      0.2729407250881195,
      0.1871921420097351,
      -0.28264275193214417,
      -0.06440815329551697
    ],
    [
      0.04845910519361496,
      -0.09186577796936035,
      0.1550321727991104,
      -0.3225102424621582,
      -0.898705780506134,
      -0.5196317434310913,
      -0.20396406948566437,
      0.1211075484752655,
      -0.23011527955532074,
      -0.07971324771642685
    ],
    [
      0.02762424573302269,
      0.20877967774868011,
      -0.20167846977710724,
      0.190791517496109,
      -0.134290412068367,
      -0.36035773158073425,
      0.1292177438735962,
      -0.18555448949337006,
      0.22939549386501312,
      0.13630171120166779
    ],
    [
      -0.153488427400589,
      -0.06941725313663483,
      -0.14455974102020264,
      -0.03002641722559929,
      -0.0007622768171131611,
      -0.0076835742220282555,
      -0.20664869248867035,
      -0.263717919588089,
      -0.20223139226436615,
      0.05338912084698677
    ],
    [
      0.08937585353851318,
      -0.5531200766563416,
      -0.009381240233778954,
      0.026489457115530968,
      0.1869199126958847,
      -0.42611443996429443,
      -0.14086583256721497,
      -0.04493633657693863,
      -0.051937662065029144,
      -0.16702578961849213
    ],
    [
      0.0802147313952446,
      -0.06762862205505371,
      0.036760494112968445,
      -0.44436243176460266,
      0.25777146220207214,
      -0.43371689319610596,
      -0.06633346527814865,
      0.25336697697639465,
      0.17175042629241943,
      -0.2850474417209625
    ],
    [
      0.18102271854877472,
      -0.16558586061000824,
      -0.02068607695400715,
      0.09977339953184128,
      0.07690780609846115,
      0.2622056305408478,
      -0.11925208568572998,
      -0.22084717452526093,
      0.02006513439118862,
      0.10879524052143097
    ]
  ],
  "body.0.bias": [
    0.20839841663837433,
    -0.054107751697301865,
    0.1618853211402893,
    -0.08277701586484909,
    -0.3661492168903351,
    -0.4890391528606415,
    -0.5236708521842957,
    -0.594639778137207,
    0.30378296971321106,
    0.04569157958030701,
    0.2996143698692322,
    0.05462604761123657,
    -0.5752487182617188,
    -0.10835522413253784,
    0.24863556027412415,
    -0.3353661596775055,
    -0.32338908314704895,
    0.16912034153938293,
    -0.26613229513168335,
    0.38426706194877625,
    -0.14570097625255585,
    0.06417301297187805,
    0.32328522205352783,
    -0.3713151812553406,
    0.3393954932689667,
    -0.4404512941837311,
    0.05984678119421005,
    -0.08668547868728638,
    0.08581501245498657,
    -0.022454921156167984,
    -0.5212529897689819,
    0.16687363386154175,
    0.28239601850509644,
    -0.14675022661685944,
    -0.32514530420303345,
    -0.11601164191961288,
    0.09094362705945969,
    0.24383439123630524,
    0.2901741564273834,
    -0.2205241173505783,
    0.054445743560791016,
    -0.34386152029037476,
    0.035964880138635635,
    0.2769601047039032,
    0.07755360007286072,
    -0.2227342426776886,
    -0.05372101441025734,
    0.14861081540584564,
    -0.0022347893100231886,
    -0.5174951553344727,
    0.24750691652297974,
    0.33092689514160156,
    -0.06678909063339233,
    0.24944710731506348,
    -0.1373230367898941,
    -0.047347769141197205,
    0.36864957213401794,
    -0.14172545075416565,
    -0.23634111881256104,
    -0.19671019911766052,
    -0.0654616728425026,
    -0.3216196298599243,
    0.0750664547085762,
    0.047398827970027924,
    -0.343187153339386,
    0.17292840778827667,
    0.10305348038673401,
    -0.05165417492389679,
    0.19360709190368652,
    -0.1731812208890915,
    0.3863065540790558,
    0.2572736442089081,
    0.0016248957253992558,
    0.06168394535779953,
    -0.14716733992099762,
    -0.5241242051124573,
    -0.21664999425411224,
    0.11346814781427383,
    0.30224093794822693,
    -0.02624165453016758,
    -0.39311015605926514,
    -0.06268490850925446,
    -0.32729873061180115,
    -0.07765927165746689,
    0.2832382619380951,
    -0.1524946391582489,
    0.3093165457248688,
    0.3096905052661896,
    -0.16622978448867798,
    -0.1384134590625763,
    -0.17905551195144653,
    -0.6725307106971741,
    0.045530278235673904,
    -0.1703808754682541,
    -0.1705521196126938,
    -0.2745136618614197,
    -0.2942996919155121,
    -0.16693849861621857,
    0.1665990948677063,
    0.18263652920722961,
    0.4272228479385376,
    0.0027705878019332886,
    0.284976989030838,
    0.038698308169841766,
    0.09123943746089935,
    -0.023459874093532562,
    0.13588067889213562,
    0.22074460983276367,
    -0.012135221622884274,
    -0.2996498942375183,
    0.2406695932149887,
    0.3120754063129425,
    -0.25476595759391785,
    -0.5185756087303162,
    -0.14597538113594055,
    -0.2065228521823883,
    0.29176944494247437,
    -0.07637905329465866,
    -0.4931298792362213,
    0.23707802593708038,
    0.09424791485071182,
    0.05502842739224434,
    0.4339539110660553,
    -0.4945535361766815,
    0.2779264450073242,
    -0.4157244563102722,
    0.14195504784584045,
    -0.2644258141517639,
    0.42781782150268555,
    -0.4157494902610779,
    -0.1213301494717598,
    -0.34610772132873535,
    0.26692667603492737,
    -0.5847535133361816,
    0.19939085841178894,
    0.3077371418476105,
    0.21361395716667175,
    0.21136713027954102,
    -0.15087535977363586,
    0.04714862257242203,
    0.12020829319953918,
    -0.14011837542057037,
    0.29278916120529175,
    -0.5206302404403687,
    0.19051086902618408,
    0.36727213859558105,
    -0.20425266027450562,
    -0.1526499092578888,
    0.2605491876602173,
    0.27588215470314026,
    0.4069656431674957,
    -0.26942282915115356,
    0.15294677019119263,
    -0.4071730077266693,
    0.1221127063035965,
    -0.3898463845252991,
    -0.05883102864027023,
    0.2451721429824829,
    -0.638972818851471,
    -0.1705213040113449,
    -0.1811695247888565,
    0.3953501582145691,
    -0.060898344963788986,
    0.29427769780158997,
    -0.3577558100223541,
    -0.05188993737101555,
    0.2085820883512497,
    0.2574306130409241,
    -0.4218808114528656,
    0.05803432688117027,
    0.24329660832881927,
    0.14448808133602142,
    0.002958101686090231,
    0.1758534461259842,
    -0.16710980236530304,
    -0.4675768315792084,
    -0.19317735731601715,
    0.23290151357650757,
    -0.43552225828170776,
    -0.42043519020080566,
    -0.0016763160238042474,
    0.21047453582286835,
    0.2163994312286377,
    0.11377228796482086,
    -0.2905755639076233,
    -0.14604850113391876,
    0.27226918935775757,
    0.20314930379390717,
    0.22859348356723785,
    0.30865535140037537,
    0.023719066753983498,
    -0.33200186491012573,
    -0.111518494784832,
    -0.0003002625599037856,
    0.046564456075429916,
    0.1315620243549347,
    -0.07443923503160477,
    -0.08394315838813782,
    0.24339979887008667,
    -0.5070990324020386,
    0.10689088702201843,
    -0.08993322402238846,
    0.050304993987083435,
    -0.5453435182571411,
    0.3659990131855011,
    -0.33197760581970215,
    -0.1894547939300537,
    0.19907429814338684,
    0.09001663327217102,
    0.3899189829826355,
    -0.016627874225378036,
    -0.1878124326467514,
    -0.6065418124198914,
    0.34907785058021545,
    -0.5465751886367798,
    0.302654892206192,
    -0.159052312374115,
    0.08709560334682465,
    -0.13054220378398895,
    0.044764645397663116,
    -0.14417387545108795,
    -0.14849483966827393,
    -0.011913232505321503,
    -0.07111171633005142,
    0.31333449482917786,
    -0.007231894414871931,
    -0.28186947107315063,
    -0.4136914312839508,
    0.35245800018310547,
    0.07084079831838608,
    0.1030547022819519,
    -0.09489118307828903,
    -0.4126589894294739,
    0.4259534180164337,
    -0.33955058455467224,
    -0.3938893973827362,
    0.12333863973617554,
    0.3044377267360687,
    -0.13850748538970947,
    -0.23296165466308594,
    0.0057890634052455425,
    -0.1169016882777214,
    -0.14234855771064758,
    -0.5508586764335632,
    0.1843690723180771,
    0.14045338332653046,
    0.16063292324543,
    0.2232748568058014,
    0.35606294870376587,
    -0.25002461671829224,
    0.15957818925380707,
    -0.1798558235168457,
    -0.23871482908725739,
    -0.2421441674232483,
    0.11946842074394226,
    -0.4495951533317566
  ],
  "body.2.weight": [
    [
      0.08376351743936539,
      -0.11467814445495605,
      0.00626804493367672,
      -0.12803636491298676,
      -0.2740541994571686,
      -0.0883256122469902,
      -0.1225203424692154,
      -0.11227251589298248,
      0.07145395129919052,
      0.044137030839920044,
      0.04305112361907959,
      -0.07564856112003326,
      -0.07573743164539337,
      -0.05910826101899147,
      -0.05434383451938629,
      -0.08358962833881378,
      -0.12872205674648285,
      -0.04903561621904373,
      -0.004303825553506613,
      0.03582374379038811,
      -0.12972484529018402,
      -0.059068016707897186,
      0.0007068511331453919,
      -0.11498518288135529,
      -0.11585927754640579,
      -0.34347033500671387,
      -0.0925687849521637,
      -0.04489739239215851,
      -0.0045237489975988865,
      -0.02681674249470234,
      -0.03787414729595184,
      0.15784090757369995,
      0.0324641689658165,
      -0.27320799231529236,
      -0.06629374623298645,
      -0.12091774493455887,
      -0.08174162358045578,
      -0.2077411562204361,
      0.04693906754255295,
      -0.17991362512111664,
      0.003949818667024374,
      -0.07429993897676468,
      -0.059043195098638535,
      0.11015114188194275,
      -0.058374982327222824,
      -0.11777821183204651,
      -0.12708322703838348,
      -0.05015742778778076,
      -0.12288066744804382,
      -0.10596586018800735,
      -0.11538530141115189,
      -0.05871066451072693,
      -0.006419391371309757,
      0.009050057269632816,
      -0.10949145257472992,
      -0.10110261291265488,
      0.040964920073747635,
      -0.32619941234588623,
      -0.1717110276222229,
      -0.056454770267009735,
      -0.0023791941348463297,
      -0.06440658867359161,
      -0.017295675352215767,
      -0.10691585391759872,
      -0.016507986932992935,
      -0.0635901391506195,
      -0.16631126403808594,
      0.008348528295755386,
      0.026836909353733063,
      -0.39037424325942993,
      0.027546577155590057,
      -0.03379548713564873,
      -0.04132000729441643,
      -0.08623886853456497,
      -0.11129576712846756,
      -0.2505325973033905,
      -0.02082720771431923,
      0.013990744948387146,
      0.14542368054389954,
      -0.06153711676597595,
      -0.1407458633184433,
      -0.06546824425458908,
      -0.196128711104393,
      -0.169438898563385,
      0.16574393212795258,
      -0.1605856567621231,
      0.06648854911327362,
      -0.1060018539428711,
      -0.08739123493432999,
      -0.15424440801143646,
      -0.03862910345196724,
      -0.06573964655399323,
      0.08179381489753723,
      -0.16082337498664856,
      -0.06748435646295547,
      -0.05456536263227463,
      -0.03998495638370514,
      -0.3738415241241455,
      0.05649835988879204,
      -0.05728497728705406,
      0.2241951823234558,
      -0.1520443856716156,
      -0.03083641454577446,
      -0.05631188675761223,
      -0.07314115762710571,
      -0.11693020164966583,
      0.08204381167888641,
      -0.15313909947872162,
      -0.04712197929620743,
      -0.14549535512924194,
      0.06229770556092262,
      -0.05437749996781349,
      -0.27704328298568726,
      -0.13129210472106934,
      -0.22120526432991028,
      -0.03539671748876572,
      -0.058658991008996964,
      -0.0647289976477623,
      -0.08313792943954468,
      0.0012043062597513199,
      -0.08567462861537933,
      0.06892112642526627,
      0.12815195322036743,
      -0.10064170509576797,
      -0.027082251384854317,
      -0.22162137925624847,
      0.019778119400143623,
      0.02342499978840351,
      0.0652284026145935,
      -0.2024833709001541,
      -0.11514794826507568,
      -0.09247666597366333,
      0.019022922962903976,
      -0.056724436581134796,
      -0.19114604592323303,
      0.03852951154112816,
      0.01202577818185091,
      0.012001702561974525,
      -0.24525406956672668,
      -0.018622931092977524,
      0.08623851090669632,
      -0.18374046683311462,
      0.03385089337825775,
      -0.14598241448402405,
      -0.05078982189297676,
      -0.03343429043889046,
      -0.031056847423315048,
      -0.09637119621038437,
      -0.052808746695518494,
      0.028018124401569366,
      0.03920687735080719,
      -0.04710421711206436,
      0.02385667711496353,
      -0.0805560052394867,
      -0.021245039999485016,
      -0.13069957494735718,
      -0.04026171565055847,
      -0.07869768142700195,
      -0.11044804006814957,
      -0.2651684582233429,
      0.0036157043650746346,
      -0.026177620515227318,
      0.053735554218292236,
      0.13374674320220947,
      -0.09097356349229813,
      -0.191872701048851,
      -0.2114374190568924,
      -0.03361267223954201,
      -0.097635418176651,
      0.008082759566605091,
      -0.04167400300502777,
      0.032662056386470795,
      -0.1712501347064972,
      -0.11861211061477661,
      -0.021354470402002335,
      -0.10659085214138031,
      0.04600535333156586,
      0.0594867579638958,
      -0.15458199381828308,
      -0.11225630342960358,
      0.0443238765001297,
      0.05907357856631279,
      0.0005139321438036859,
      0.01734054833650589,
      -0.06933016330003738,
      -0.07553910464048386,
      0.10424783825874329,
      0.13656550645828247,
      0.031993769109249115,
      0.11166774481534958,
      -0.05083857849240303,
      -0.11699546128511429,
      -0.12643951177597046,
      0.004311026073992252,
      -0.0720163881778717,
      -0.120859295129776,
      -0.113100066781044,
      -0.013825497590005398,
      0.034094084054231644,
      -0.08415795117616653,
      0.03754895180463791,
      -0.25911930203437805,
      0.08337268978357315,
      -0.2126152068376541,
      0.046139150857925415,
      -0.16729578375816345,
      0.015511222183704376,
      0.05330982059240341,
      -0.12317000329494476,
      0.11624933034181595,
      -0.06315868347883224,
      -0.1147507056593895,
      -0.20907385647296906,
      -0.1146082729101181,
      -0.06198391690850258,
      0.13107991218566895,
      0.029153693467378616,
      -0.014544270932674408,
      -0.024873072281479836,
      -0.05256662517786026,
      -0.050235211849212646,
      -0.16610601544380188,
      -0.034652456641197205,
      -0.0256672240793705,
      -0.14487357437610626,
      -0.05638709291815758,
      -0.018514493480324745,
      -0.056342437863349915,
      0.12000410258769989,
      -0.05177668109536171,
      -0.10408858209848404,
      -0.011802267283201218,
      -0.08054661750793457,
      0.05522995814681053,
      -0.0929567739367485,
      -0.08700146526098251,
      -0.06823752820491791,
      -0.1776474416255951,
      0.01991005800664425,
      -0.050654780119657516,
      -0.02119666151702404,
      -0.008045660331845284,
      0.11979495733976364,
      -0.2106715589761734,
      -0.021500660106539726,
      0.15933117270469666,
      -0.023797638714313507,
      -0.03876565769314766,
      0.044717609882354736,
      -0.10952489823102951,
      -0.002203911542892456,
      0.02107100561261177,
      -0.022366076707839966,
      -0.1947949081659317,
      -0.04533448815345764,
      -0.1393880844116211
    ],
    [
      0.046334605664014816,
      -0.08790417015552521,
      -0.2607538104057312,
      0.002779122907668352,
      0.022945577278733253,
      0.12801726162433624,
      0.10526113957166672,
      0.0875808596611023,
      -0.14473900198936462,
      0.09525302797555923,
      -0.013418180868029594,
      -0.007982884533703327,
      0.033731963485479355,
      -0.015914537012577057,
      -0.1664300113916397,
      0.06838802248239517,
      0.0394664891064167,
      -0.034512389451265335,
      0.0766364336013794,
      -0.11014688014984131,
      -0.023316917940974236,
      0.055100053548812866,
      0.04881538823246956,
      0.0035746213980019093,
      0.0181056410074234,
      0.018923018127679825,
      -6.707006832584739e-05,
      0.11088266223669052,
      0.0038102304097265005,
      -0.05477156490087509,
      0.1272832602262497,
      0.08773249387741089,
      -0.19334746897220612,
      0.013881346210837364,
      -0.08911288529634476,
      0.03691543638706207,
      -0.051217712461948395,
      0.04211966320872307,
      -0.0984925776720047,
      0.07223150879144669,
      -0.08239438384771347,
      0.10540362447500229,
      0.01708208955824375,
      -0.10749612748622894,
      -0.027147473767399788,
      0.0017869817093014717,
      0.021023936569690704,
      -0.020325036719441414,
      -0.06044471636414528,
      0.10358492285013199,
      -0.06447289884090424,
      0.0005240475875325501,
      0.023655543103814125,
      -0.004072955343872309,
      0.15336568653583527,
      -0.20086093246936798,
      -0.24268032610416412,
      0.025291115045547485,
      0.08330871164798737,
      0.00451353844255209,
      0.022387590259313583,
      0.09044210612773895,
      0.024684051051735878,
      -0.062225256115198135,
      0.025128649547696114,
      -0.1345788836479187,
      -0.02987048029899597,
      0.0059559703804552555,
      -0.08373618125915527,
      -0.10848768055438995,
      -0.13350458443164825,
      -0.053392939269542694,
      -0.017476677894592285,
      0.014533274807035923,
      -0.0056297192350029945,
      0.030236629769206047,
      -0.09737063199281693,
      -0.15533800423145294,
      0.005684236530214548,
      0.030358530580997467,
      0.08752040565013885,
      0.02342347614467144,
      0.14515450596809387,
      0.03643190115690231,
      0.04917134344577789,
      0.13556921482086182,
      0.014888047240674496,
      -0.013594475574791431,
      -0.17579007148742676,
      0.03293012082576752,
      0.05627616122364998,
      0.14835599064826965,
      0.035656049847602844,
      -0.2198587954044342,
      0.09464229643344879,
      0.03553804010152817,
      -0.03384791314601898,
      -0.05172870308160782,
      0.027146203443408012,
      0.009876524098217487,
      -0.04596059396862984,
      0.039787787944078445,
      -0.09029591828584671,
      0.008740993216633797,
      -0.027290644124150276,
      -0.010771532543003559,
      0.1212216392159462,
      0.027743026614189148,
      -0.058309245854616165,
      0.0014636451378464699,
      -0.005756406579166651,
      -0.08897832036018372,
      0.07919195294380188,
      0.06534253060817719,
      0.0033674046862870455,
      0.029914192855358124,
      -0.04305142164230347,
      0.03141884133219719,
      0.02055046521127224,
      0.020964575931429863,
      0.14859966933727264,
      0.009572586044669151,
      -0.1636243611574173,
      0.08063455671072006,
      -0.19052575528621674,
      0.0892861858010292,
      -0.0019374057883396745,
      0.04218112677335739,
      -0.21808898448944092,
      0.09825954586267471,
      0.05501183122396469,
      -0.07917948067188263,
      -0.03214673325419426,
      0.041081689298152924,
      0.10194119811058044,
      -0.009796969592571259,
      -0.0768471360206604,
      0.05528578162193298,
      -0.045208144932985306,
      -0.023101115599274635,
      -0.22740693390369415,
      -0.1275537759065628,
      -0.1272815316915512,
      0.04858863353729248,
      -0.10172948986291885,
      -0.057889673858881,
      0.11984731256961823,
      -0.03675860911607742,
      -0.05954757705330849,
      0.032713882625103,
      -0.23127128183841705,
      -0.04907294362783432,
      0.054948899894952774,
      0.039393987506628036,
      0.02165931835770607,
      0.0260250773280859,
      0.08263586461544037,
      -0.017901349812746048,
      0.10646400600671768,
      0.10902323573827744,
      0.017943501472473145,
      -0.14663368463516235,
      0.1359313577413559,
      -0.03411052003502846,
      0.008114784024655819,
      0.05431098863482475,
      0.011440451256930828,
      -0.0011951264459639788,
      0.045727889984846115,
      -0.213131383061409,
      -0.009198930114507675,
      0.08007809519767761,
      -0.07766391336917877,
      0.08589795976877213,
      -0.2915921211242676,
      -0.0014862918760627508,
      -0.055192094296216965,
      -0.03177531436085701,
      0.025309454649686813,
      0.07248103618621826,
      0.03448517248034477,
      -0.08784817159175873,
      -0.1585998833179474,
      0.07385475188493729,
      0.08730199187994003,
      -0.006919524632394314,
      0.005378239322453737,
      -0.08971615880727768,
      0.0803915336728096,
      -0.1933775395154953,
      -0.0003398525295779109,
      0.03519295156002045,
      -0.07037894427776337,
      -0.06985761225223541,
      -0.2234649360179901,
      -0.08329296112060547,
      0.0541333444416523,
      -0.02012800984084606,
      -0.19992610812187195,
      0.05429936572909355,
      0.008935324847698212,
      -0.13145872950553894,
      0.06173565611243248,
      0.20112244784832,
      -0.0957343727350235,
      -0.029939839616417885,
      -0.14852184057235718,
      0.03476346284151077,
      0.024301299825310707,
      -0.17600351572036743,
      0.035227224230766296,
      0.004859353415668011,
      0.157157301902771,
      -0.07611995190382004,
      0.1349145919084549,
      -0.017427194863557816,
      0.12156934291124344,
      0.042345885187387466,
      -0.040085166692733765,
      -0.16921623051166534,
      -0.0745224878191948,
      -0.001984273549169302,
      -0.17506884038448334,
      0.004847892560064793,
      -0.06733649224042892,
      -0.020288266241550446,
      -0.013415687717497349,
      -0.038072992116212845,
      -0.03694711998105049,
      0.035051025450229645,
      -0.06095387786626816,
      0.0804632306098938,
      0.12634491920471191,
      -0.08552253991365433,
      0.0052955192513763905,
      -0.02414323203265667,
      -0.048811305314302444,
      0.000872646807692945,
      -0.1762758046388626,
      0.07887866348028183,
      0.08397246152162552,
      -0.05131365731358528,
      0.004554017446935177,
      0.08021606504917145,
      -0.03293270990252495,
      0.061205361038446426,
      -0.13496938347816467,
      -0.02054998092353344,
      0.046540696173906326,
      0.06912790983915329,
      -0.13932208716869354,
      0.035634834319353104,
      -0.0032319575548171997,
      -0.07981082797050476,
      -0.1182074099779129,
      0.06154654920101166
    ],
    [
      -0.03269081935286522,
      0.14009355008602142,
      0.25782525539398193,
      0.034869976341724396,
      0.008053638972342014,
      -0.09547112882137299,
      -0.06926608830690384,
      -0.11767934262752533,
      -0.10288705676794052,
      0.11457478255033493,
      0.02849757857620716,
      -0.016270210966467857,
      -0.048130109906196594,
      -0.0994177833199501,
      0.12228818982839584,
      0.05548751354217529,
      -0.03780536353588104,
      -0.15826480090618134,
      0.007391293067485094,
      0.006920742802321911,
      0.032092951238155365,
      -0.07957224547863007,
      0.0208323672413826,
      -0.013552137650549412,
      0.052278224378824234,
      -0.10396087169647217,
      -0.04486190900206566,
      -0.011841995641589165,
      -0.029923664405941963,
      0.052762825042009354,
      -0.0015526687493547797,
      -0.1144270971417427,
      0.0614280104637146,
      -0.03166923671960831,
      -0.06972136348485947,
      -0.07111788541078568,
      0.03718233108520508,
      -0.0764552429318428,
      -0.06265613436698914,
      -0.020869998261332512,
      0.17753560841083527,
      0.0339544415473938,
      -0.07814674824476242,
      -0.059488341212272644,
      -0.13114126026630402,
      -0.09615086019039154,
      0.02050209231674671,
      -0.11254741251468658,
      -0.17595773935317993,
      0.008388319984078407,
      0.7486199736595154,
      -0.0638032928109169,
      0.10271912813186646,
      0.08285636454820633,
      0.152791365981102,
      0.07538530230522156,
      -0.18326929211616516,
      -0.03226075693964958,
      -0.042430926114320755,
      -0.05355728790163994,
      0.050918493419885635,
      -0.32320594787597656,
      -0.06680866330862045,
      0.22303617000579834,
      -0.11681205779314041,
      0.3913615345954895,
      0.05529732257127762,
      -0.00017917802324518561,
      0.14729425311088562,
      0.15425848960876465,
      -0.1509394645690918,
      0.036996737122535706,
      -0.06479460000991821,
      0.04430926591157913,
      0.011336764320731163,
      -0.05628439411520958,
      0.01863783597946167,
      -0.01024087518453598,
      0.2307238131761551,
      -0.06431575864553452,
      -0.0731138363480568,
      0.017749473452568054,
      -0.06591739505529404,
      0.05476822704076767,
      0.05246143043041229,
      0.010954398661851883,
      -0.09117487818002701,
      0.019184470176696777,
      -0.029132798314094543,
      -0.0029173896182328463,
      0.04241883382201195,
      -0.0941464900970459,
      0.049141041934490204,
      -0.02070884220302105,
      -0.1171320378780365,
      -0.06866161525249481,
      0.04186810925602913,
      0.07348097115755081,
      0.02822686918079853,
      -0.018741218373179436,
      -0.11842216551303864,
      -0.027383727952837944,
      -0.013874093070626259,
      -0.06526640802621841,
      -0.031527452170848846,
      -0.030870432034134865,
      0.013492811471223831,
      0.15438473224639893,
      -0.02152351103723049,
      -0.034286655485630035,
      -0.008291536942124367,
      0.02810533344745636,
      -0.05256149545311928,
      -0.09808854758739471,
      -0.03147934749722481,
      0.015560425817966461,
      0.04424857348203659,
      0.08601505309343338,
      -0.07791214436292648,
      0.031647104769945145,
      -0.013955804519355297,
      -0.040973417460918427,
      -0.028493788093328476,
      -0.04401946812868118,
      0.20258447527885437,
      0.021476203575730324,
      -0.03792746365070343,
      -0.022616729140281677,
      0.007910540327429771,
      -0.10861942172050476,
      -0.13837696611881256,
      -0.0600469671189785,
      -0.16879963874816895,
      -0.07243292033672333,
      0.09087960422039032,
      0.026581382378935814,
      -0.14611966907978058,
      -0.0018039423739537597,
      -0.04306904971599579,
      -0.20867350697517395,
      0.31030333042144775,
      0.19271908700466156,
      -0.0866113230586052,
      -0.151521235704422,
      0.05976421758532524,
      -0.015513405203819275,
      -0.050096288323402405,
      0.05411089211702347,
      0.04487549141049385,
      -0.05026751756668091,
      0.1115654781460762,
      -0.06436118483543396,
      -0.0769689679145813,
      -0.15206602215766907,
      -0.03143855184316635,
      -0.024890895932912827,
      -0.06487609446048737,
      -0.04530150443315506,
      -0.15328672528266907,
      -0.011101474985480309,
      -0.14425094425678253,
      -0.061030298471450806,
      0.03216734528541565,
      0.02093086950480938,
      -0.0017968931933864951,
      0.0002407598658464849,
      -0.02887650579214096,
      0.28053605556488037,
      -0.10693341493606567,
      0.2937390208244324,
      0.0533052459359169,
      0.10408462584018707,
      0.07457835227251053,
      0.02458282932639122,
      -0.15506808459758759,
      -0.08362939208745956,
      0.0503804087638855,
      0.02704554796218872,
      -0.01990550570189953,
      -0.1988322138786316,
      0.011081792414188385,
      0.09444431215524673,
      0.08529116958379745,
      -0.027988268062472343,
      -0.045187242329120636,
      -0.07328012585639954,
      0.08934126049280167,
      0.14984716475009918,
      0.053027380257844925,
      -0.0773816928267479,
      -0.00807468593120575,
      0.006219169124960899,
      0.019480394199490547,
      -0.0929320827126503,
      0.08797459304332733,
      0.4591291844844818,
      0.00326435430906713,
      -0.07310377806425095,
      0.20613513886928558,
      -0.10338255763053894,
      -0.1396997570991516,
      0.16740672290325165,
      -0.0926317498087883,
      -0.16688203811645508,
      0.16752566397190094,
      -0.05823640897870064,
      -0.04936547949910164,
      -0.04695164039731026,
      -0.07858096808195114,
      0.04533030092716217,
      -0.021968238055706024,
      0.030727609992027283,
      -0.08735700696706772,
      -0.00827709399163723,
      -0.0027904801536351442,
      -0.06605935841798782,
      -0.15920692682266235,
      -0.012579592876136303,
      -0.03140588849782944,
      0.3644178807735443,
